{"animation":{"layers":[{"ind":0,"type":"ShapeLayer","shapes":[{"ty":"gr","it":[{"ty":"sh","closed":false,"ks":{"i":[[0,0],[-0.025,-25.317],[-0.013,-3.479]],"o":[[0,0],[0.028,29.009],[0.026,6.925]],"v":[[43.668,-208.224],[43.781,-93.321],[43.881,-35.884]]}},{"ty":"tr","p":[0,0],"a":[0,0],"s":[156.839,89.645],"r":0,"o":100}]},{"ty":"tm","s":[{"i":{"x":[0.217],"y":[1]},"o":{"x":[0.77],"y":[0]},"n":"0p217_1_0p77_0","t":26,"s":[0],"e":[100]},{"t":30}],"e":[{"i":{"x":[0.667],"y":[1]},"o":{"x":[0.333],"y":[0]},"n":"0p667_1_0p333_0","t":25,"s":[0],"e":[100]},{"t":28}],"o":0,"m":1},{"ty":"st","fillEnabled":true,"c":[173,0,64,255],"o":100,"w":[{"i":{"x":[0.833],"y":[0.833]},"o":{"x":[0.167],"y":[0.167]},"n":"0p833_0p833_0p167_0p167","t":25,"s":[6],"e":[4]},{"t":30}]}],"rectData":{"l":0,"t":0,"b":0,"r":0,"w":0,"h":0},"layerName":"delay 5","threeD":false,"an":{},"width":100,"height":100,"inPoint":23,"outPoint":30,"startTime":23,"ks":{"o":100,"r":180,"p":[65.7,43.5,0],"a":[0,0,0],"s":[18.248,19.962,100]}},{"ind":1,"type":"ShapeLayer","shapes":[{"ty":"gr","it":[{"ty":"sh","closed":false,"ks":{"i":[[0,0],[-0.025,-25.317],[-0.013,-3.479]],"o":[[0,0],[0.028,29.009],[0.026,6.925]],"v":[[43.735,-141.726],[43.781,-93.321],[43.881,-35.884]]}},{"ty":"tr","p":[0,0],"a":[0,0],"s":[156.839,89.645],"r":0,"o":100}]},{"ty":"tm","s":[{"i":{"x":[0.217],"y":[1]},"o":{"x":[0.77],"y":[0]},"n":"0p217_1_0p77_0","t":26,"s":[0],"e":[100]},{"t":30}],"e":[{"i":{"x":[0.667],"y":[1]},"o":{"x":[0.333],"y":[0]},"n":"0p667_1_0p333_0","t":25,"s":[0],"e":[100]},{"t":28}],"o":0,"m":1},{"ty":"st","fillEnabled":true,"c":[173,0,64,255],"o":100,"w":[{"i":{"x":[0.833],"y":[0.833]},"o":{"x":[0.167],"y":[0.167]},"n":"0p833_0p833_0p167_0p167","t":25,"s":[6],"e":[4]},{"t":30}]}],"rectData":{"l":0,"t":0,"b":0,"r":0,"w":0,"h":0},"layerName":"delay 4","threeD":false,"an":{},"width":100,"height":100,"inPoint":23,"outPoint":30,"startTime":23,"ks":{"o":100,"r":180,"p":[42.7,43.5,0],"a":[0,0,0],"s":[18.248,19.962,100]}},{"ind":2,"type":"ShapeLayer","shapes":[{"ty":"gr","it":[{"ty":"sh","closed":false,"ks":{"i":[[0,0],[-0.025,-25.317],[-0.013,-3.479]],"o":[[0,0],[0.028,29.009],[0.026,6.925]],"v":[[43.735,-141.726],[43.781,-93.321],[43.881,-35.884]]}},{"ty":"tr","p":[0,0],"a":[0,0],"s":[156.839,89.645],"r":0,"o":100}]},{"ty":"tm","s":[{"i":{"x":[0.217],"y":[1]},"o":{"x":[0.77],"y":[0]},"n":"0p217_1_0p77_0","t":26,"s":[0],"e":[100]},{"t":30}],"e":[{"i":{"x":[0.667],"y":[1]},"o":{"x":[0.333],"y":[0]},"n":"0p667_1_0p333_0","t":25,"s":[0],"e":[100]},{"t":28}],"o":0,"m":1},{"ty":"st","fillEnabled":true,"c":[173,0,64,255],"o":100,"w":[{"i":{"x":[0.833],"y":[0.833]},"o":{"x":[0.167],"y":[0.167]},"n":"0p833_0p833_0p167_0p167","t":25,"s":[6],"e":[4]},{"t":30}]}],"rectData":{"l":0,"t":0,"b":0,"r":0,"w":0,"h":0},"layerName":"delay 3","threeD":false,"an":{},"width":100,"height":100,"inPoint":23,"outPoint":30,"startTime":23,"ks":{"o":100,"r":0,"p":[23.7,56.5,0],"a":[0,0,0],"s":[18.248,19.962,100]}},{"ind":3,"type":"ShapeLayer","shapes":[{"ty":"gr","it":[{"ty":"sh","closed":false,"ks":{"i":[[0,0],[-0.025,-25.317],[-0.013,-3.479]],"o":[[0,0],[0.028,29.009],[0.026,6.925]],"v":[[43.735,-141.726],[43.781,-93.321],[43.865,29.497]]}},{"ty":"tr","p":[0,0],"a":[0,0],"s":[156.839,89.645],"r":0,"o":100}]},{"ty":"tm","s":[{"i":{"x":[0.217],"y":[1]},"o":{"x":[0.77],"y":[0]},"n":"0p217_1_0p77_0","t":26,"s":[0],"e":[100]},{"t":30}],"e":[{"i":{"x":[0.667],"y":[1]},"o":{"x":[0.333],"y":[0]},"n":"0p667_1_0p333_0","t":25,"s":[0],"e":[100]},{"t":28}],"o":0,"m":1},{"ty":"st","fillEnabled":true,"c":[173,0,64,255],"o":100,"w":[{"i":{"x":[0.833],"y":[0.833]},"o":{"x":[0.167],"y":[0.167]},"n":"0p833_0p833_0p167_0p167","t":25,"s":[6],"e":[4]},{"t":30}]}],"rectData":{"l":0,"t":0,"b":0,"r":0,"w":0,"h":0},"layerName":"delay 2","threeD":false,"an":{},"width":100,"height":100,"inPoint":23,"outPoint":30,"startTime":23,"ks":{"o":100,"r":0,"p":[58.3,42.5,0],"a":[0,0,0],"s":[18.248,19.962,100]}},{"ind":4,"type":"ShapeLayer","shapes":[{"ty":"gr","it":[{"ty":"sh","closed":false,"ks":{"i":[[0,0],[-0.025,-25.317],[-0.013,-3.479]],"o":[[0,0],[0.028,29.009],[0.026,6.925]],"v":[[43.735,-141.726],[43.781,-93.321],[43.865,29.497]]}},{"ty":"tr","p":[0,0],"a":[0,0],"s":[156.839,89.645],"r":0,"o":100}]},{"ty":"tm","s":[{"i":{"x":[0.217],"y":[1]},"o":{"x":[0.77],"y":[0]},"n":"0p217_1_0p77_0","t":26,"s":[0],"e":[100]},{"t":30}],"e":[{"i":{"x":[0.667],"y":[1]},"o":{"x":[0.333],"y":[0]},"n":"0p667_1_0p333_0","t":25,"s":[0],"e":[100]},{"t":28}],"o":0,"m":1},{"ty":"st","fillEnabled":true,"c":[173,0,64,255],"o":100,"w":[{"i":{"x":[0.833],"y":[0.833]},"o":{"x":[0.167],"y":[0.167]},"n":"0p833_0p833_0p167_0p167","t":25,"s":[10],"e":[4]},{"t":30}]}],"rectData":{"l":0,"t":0,"b":0,"r":0,"w":0,"h":0},"layerName":"delay","threeD":false,"an":{},"width":100,"height":100,"inPoint":23,"outPoint":30,"startTime":23,"ks":{"o":100,"r":0,"p":[46.3,42.5,0],"a":[0,0,0],"s":[18.248,19.962,100]}},{"ind":5,"type":"ShapeLayer","shapes":[{"ty":"gr","it":[{"ty":"sh","closed":true,"ks":[{"i":{"x":0.428,"y":1},"o":{"x":0.167,"y":0.167},"n":"0p428_1_0p167_0p167","t":27,"s":[{"i":[[-1.124,-0.062],[1.381,0],[0,0],[1.25,0.062],[-1.381,0],[0,0]],"o":[[1.379,0.077],[0,0],[-1.381,0],[-1.379,-0.069],[0,0],[1.381,0]],"v":[[241.25,2.562],[237.312,2.562],[-183.062,2.562],[-187.562,2.438],[-184.625,2.5],[237.25,2.375]]}],"e":[{"i":[[0,-6.085],[1.381,0],[0,0],[0,6.085],[-1.381,0],[0,0]],"o":[[0,6.085],[0,0],[-1.381,0],[0,-6.085],[0,0],[1.381,0]],"v":[[241.25,2.669],[238.75,13.688],[-185,13.412],[-187.5,2.394],[-185,-8.625],[238.75,-8.35]]}]},{"i":{"x":0.396,"y":1},"o":{"x":0.917,"y":0},"n":"0p396_1_0p917_0","t":30,"s":[{"i":[[0,-6.085],[1.381,0],[0,0],[0,6.085],[-1.381,0],[0,0]],"o":[[0,6.085],[0,0],[-1.381,0],[0,-6.085],[0,0],[1.381,0]],"v":[[241.25,2.669],[238.75,13.688],[-185,13.412],[-187.5,2.394],[-185,-8.625],[238.75,-8.35]]}],"e":[{"i":[[0,-1.381],[1.381,0],[0,0],[0,1.381],[-1.381,0],[0,0]],"o":[[0,1.381],[0,0],[-1.381,0],[0,-1.381],[0,0],[1.381,0]],"v":[[241.25,2.562],[238.75,5.062],[-185,5],[-187.5,2.5],[-185,0],[238.75,0.062]]}]},{"t":33}]},{"ty":"fl","fillEnabled":true,"c":[{"i":{"x":[0.833],"y":[1]},"o":{"x":[0.167],"y":[-1.779]},"n":"0p833_1_0p167_-1p779","t":29,"s":[173,0,64,255],"e":[156,156,156,255]},{"t":33}],"o":100},{"ty":"tr","p":[-27.5,-2],"a":[0,0],"s":[100,100],"r":0,"o":100}]}],"rectData":{"l":0,"t":0,"b":0,"r":0,"w":0,"h":0},"layerName":"flat","threeD":false,"an":{},"width":100,"height":100,"inPoint":28,"outPoint":69,"startTime":-30,"ks":{"o":100,"r":0,"p":[50,50,0],"a":[0,0,0],"s":[20,20,100]}},{"ind":6,"type":"ShapeLayer","shapes":[{"ty":"sh","closed":true,"ks":[{"i":{"x":0.34,"y":1},"o":{"x":0.633,"y":0},"n":"0p34_1_0p633_0","t":18,"s":[{"i":[[0.363,-0.018],[0.703,-0.131],[2.333,-1.5],[2.417,-3.112],[2.489,-4.405],[3.488,-4.768],[1.06,-0.833],[0.44,-0.149],[0.523,-0.012],[0,0],[0.06,0],[0.054,0.035],[0.815,1.298],[0.744,1.595],[2.637,7.917],[3.161,8.941],[2.125,4.656],[1.475,2.351],[1.065,1.155],[0.732,0.548],[1.405,0.375],[2.436,-1.893],[1.709,-2.28],[3.048,-4.685],[3.804,-3.298],[1.649,-0.083],[0,0],[0.041,0.065],[0.439,1.226],[0.881,6.132],[0.637,6.489],[3.585,29.454],[1.44,7.584],[3.292,7.941],[1.356,2.054],[2.856,1.798],[0,0],[0.601,0.197],[0.554,0.119],[0.327,0.048],[0,0],[0.917,-0.125],[0.892,-0.608],[0.81,-1.161],[0.522,-1.089],[1.012,-4.089],[0.708,-4.077],[1.441,-16.817],[0.988,-17.406],[1.852,-36.872],[1.363,-18.805],[0.989,-9.394],[0.78,-5.22],[0.613,5.905],[1.096,20.061],[1.946,41.521],[1.561,21.067],[1.178,10.655],[0.815,5.399],[1.464,5.709],[1.577,3.435],[0.637,1.018],[1.28,1.268],[1.186,0.679],[0.041,-0.191],[0.649,-0.471],[0.978,-0.655],[0.785,-1.06],[0.279,-0.47],[0.22,-0.441],[0.536,-1.524],[0.66,-2.816],[1.245,-10.781],[1.363,-21.46],[2.173,-42.878],[1.685,-21.233],[1.066,-8.732],[0.106,0.72],[1.024,10.514],[1.541,21.079],[1.72,20.983],[3.179,21.049],[1.339,5.482],[1.262,3.137],[1.655,2.238],[2.411,1.345],[-0.767,-0.232],[1.452,-0.328],[1.137,-1],[0.643,-0.875],[0.714,-1.482],[0.858,-2.697],[1.107,-5.185],[2.571,-20.102],[2.339,-19.602],[0.946,-6.953],[1.143,8.756],[2.5,18.382],[3.619,17.935],[1.179,4.495],[2.054,4.714],[0.75,1.274],[1.572,1.53],[1.477,0.667],[1.077,0.096],[1.059,-0.197],[0.667,-0.358],[0.393,-0.364],[0.452,-0.417],[0.327,-0.381],[0.959,-2.375],[0.613,-2.245],[1.328,-8.584],[0.988,-8.382],[1.661,-16.037],[2,-15.186],[1.393,-7.185],[1.012,-3.185],[0.274,-0.697],[0.601,1.476],[0.976,3.339],[1.488,6.739],[2.476,12.87],[2.845,12.061],[2.321,5.899],[0.995,1.577],[1.113,0.923],[0.654,0.327],[0.142,0.006],[1.5,0.101],[0.387,-0.059],[1.185,-1.256],[0.797,-1.327],[2.018,-5.131],[1.702,-4.929],[3.328,-8.686],[2.077,-3.554],[0.54,-0.643],[0.209,-0.16],[0.036,-0.035],[-0.101,0.047],[0.096,-0.024],[0,0],[-0.03,0.012],[0,0],[0.143,0.023],[0.357,0.137],[0.733,0.608],[2.434,2.976],[2.22,2.905],[4.69,4.459],[1.453,0.851],[0,0],[0.488,0.125],[0.184,0.024],[0,0],[0.453,0.012],[0,0],[2.512,-0.036],[0,0],[0,0],[-20.097,-0.304],[-2.804,-0.048],[0,0],[0,-0.006],[0,0],[-0.137,-0.036],[-0.226,-0.089],[0,0],[-1.059,-1.006],[-4.262,-5.893],[-2.405,-3.148],[-3.387,-3.048],[-1.102,-0.649],[-0.75,-0.22],[-0.44,-0.048],[0,0],[-0.75,0.024],[0,0],[-0.28,0.107],[-0.185,0.096],[-0.16,0.131],[-0.44,0.488],[-0.648,1.024],[-1.845,4.411],[-3.625,9.715],[-2.053,4.953],[-2.757,4.435],[-0.744,0.816],[-0.286,0.22],[-0.06,-0.102],[-0.476,-1.244],[-1.292,-5.875],[-2.22,-12.893],[-2.732,-13.77],[-1.899,-7.103],[-1.376,-3.65],[-1.065,-1.929],[-0.84,-1.049],[-1.822,-0.989],[-0.547,-0.167],[-0.643,-0.047],[-0.702,0.076],[-0.649,0.417],[-0.839,1.173],[-0.679,1.952],[-0.84,3.792],[-1.155,7.696],[-1.922,16.031],[-2.221,16.549],[-1.387,8.322],[-2.226,7.852],[-0.577,1.524],[-0.904,-3.655],[-0.833,-4.322],[-2.297,-18.257],[-2.238,-18.87],[-1.345,-9.614],[-0.881,-4.906],[-0.578,-2.548],[-0.375,-1.357],[-0.709,-1.697],[-0.958,-1.381],[-1.69,-1.173],[0.119,0.5],[-1.256,0.965],[-0.322,0.56],[-0.333,0.826],[-0.608,2.583],[-0.809,4.929],[-1.298,9.858],[-2.524,19.982],[-4.161,19.448],[-0.858,3.144],[-0.447,-2.994],[-1.619,-20.811],[-1.476,-21.091],[-2.012,-21.384],[-1.523,-10.834],[-1.161,-5.571],[-0.863,-2.959],[-0.631,-1.602],[-1.405,-2.138],[-1.679,-1.369],[-1.441,-0.56],[-3.191,0.269],[-0.894,0.989],[-0.732,0.791],[-0.487,0.971],[-0.786,2.988],[-0.779,5.501],[-0.904,10.806],[-1.173,21.507],[-2.512,42.634],[-2.243,20.882],[-1.096,6.673],[-0.096,-0.595],[-0.595,-5.143],[-0.798,-10.382],[-1.16,-20.68],[-2.465,-40.366],[-2.143,-19.972],[-2.297,-10.31],[-1.048,-2.893],[-1.036,-1.804],[-1.012,-1.107],[-2.988,-0.805],[0.393,0.036],[-0.298,0.453],[-0.667,0.648],[-0.375,0.536],[-0.59,1.488],[-0.59,2.607],[-0.941,9.732],[-0.565,9.524],[-0.715,18.495],[-1.512,34.676],[-1.101,16.662],[-2.339,15.584],[-0.828,3.684],[-1.267,2.839],[-0.269,0.417],[-0.596,-0.893],[-0.686,-1.536],[-1.53,-7.144],[-1.048,-7.197],[-3.155,-26.132],[-1.035,-6.358],[-2.232,-6.393],[-1.243,-1.797],[-1.595,-0.875],[-0.489,-0.125],[-0.5,-0.047],[-0.423,0.006],[0,0],[0,0],[0,0],[-0.487,0.166],[-0.815,0.464],[-1.298,1.113],[-3.048,4.881],[-2.952,4.238],[-1.638,1.464],[-0.756,0.28],[-0.363,0.059],[0,0],[0.488,0.035],[0.244,0],[-0.179,-0.143],[-0.35,-0.364],[-0.643,-0.935],[-1.047,-2.143],[-1.685,-4.34],[-6.602,-13.466],[-1.089,-1.577],[-0.756,-0.744],[-1.387,-0.387],[-0.362,-0.03],[-0.196,0.012],[0,0],[-0.578,0.209],[-0.744,0.606],[-0.964,1.321],[-2.382,4.417],[-2.186,3.03],[-2.012,1.356],[0.077,0.161],[0,0]],"o":[[-0.363,0.035],[-1.416,0.196],[-2.352,1.477],[-2.394,3.113],[-2.523,4.368],[-0.893,1.149],[-0.513,0.394],[-0.197,0.036],[0,0],[0,0],[-0.036,-0.023],[-0.571,-0.138],[-0.869,-1.352],[-2.989,-6.43],[-2.626,-7.93],[-1.596,-4.471],[-1.06,-2.327],[-0.756,-1.167],[-0.524,-0.584],[-0.804,-0.547],[-4.405,-0.845],[-2.392,2.03],[-3.381,4.602],[-3.012,4.631],[-1.857,1.59],[0,0],[-0.036,-0.053],[-0.477,-0.715],[-1.709,-5.209],[-0.863,-6.179],[-2.548,-25.96],[-0.929,-7.358],[-1.524,-7.589],[-0.863,-1.988],[-1.364,-2.018],[0,0],[-0.339,-0.191],[-0.548,-0.172],[-0.721,-0.161],[0,0],[-1.827,-0.054],[-1.34,0.31],[-1.805,1.256],[-0.815,1.191],[-2.013,4.34],[-1,4.084],[-2.732,16.269],[-1.404,16.811],[-1.952,34.788],[-0.94,18.43],[-0.672,9.405],[-0.57,5.292],[-0.863,-5.72],[-1.928,-19.43],[-2.137,-40.158],[-0.964,-20.763],[-0.78,-10.537],[-0.597,-5.334],[-0.827,-5.417],[-0.78,-2.893],[-0.404,-0.875],[-0.619,-0.994],[-0.756,-0.678],[-0.256,-0.476],[0.476,-0.054],[-1.524,0.398],[-1.964,1.328],[-0.429,0.565],[-0.328,0.506],[-0.959,1.816],[-1.071,3.065],[-2.5,11.173],[-2.369,21.501],[-2.686,42.896],[-1.119,21.442],[-0.732,8.917],[-0.106,-0.696],[-1.477,-10.323],[-2.023,-21.055],[-1.525,-21.103],[-1.792,-20.996],[-0.833,-5.28],[-0.697,-2.757],[-0.69,-1.613],[-0.822,-1.048],[-0.827,-0.72],[-2.494,-0.167],[-2.411,0.714],[-1.149,1.03],[-1.28,1.768],[-1.387,2.953],[-1.661,5.363],[-4.256,20.638],[-2.507,20.085],[-0.852,7.077],[-1.316,-8.768],[-2.447,-18.763],[-2.536,-18.376],[-0.917,-4.495],[-1.208,-4.5],[-0.536,-1.191],[-0.774,-1.286],[-0.786,-0.744],[-0.553,-0.286],[0.452,-0.012],[-0.977,0.136],[-0.673,0.321],[-0.488,0.38],[-0.399,0.399],[-2.322,2.971],[-0.899,2.363],[-2.358,8.923],[-1.292,8.561],[-1.971,16.745],[-1.66,16.031],[-1.006,7.578],[-0.708,3.584],[-0.232,0.767],[-0.696,-1.232],[-1.25,-3.102],[-1.941,-6.697],[-2.965,-13.488],[-2.488,-12.876],[-1.459,-6.042],[-0.62,-1.494],[-0.559,-0.81],[-0.268,-0.214],[-0.459,-0.256],[-0.477,-0.047],[-0.387,0.024],[-2.946,0.762],[-1.143,1.333],[-3.09,5.286],[-1.983,5.137],[-3.393,9.852],[-1.672,4.315],[-0.518,0.869],[-0.28,0.328],[-0.053,0.048],[-0.047,0.036],[0.024,-0.024],[0,0],[-0.03,0],[0,0],[-0.107,0.024],[-0.298,-0.048],[-0.732,-0.417],[-2.934,-2.451],[-2.435,-3],[-4.465,-5.792],[-1.209,-1.089],[0,0],[-0.453,-0.178],[-0.22,-0.006],[0,0],[-0.167,-0.011],[0,0],[-2.804,0.047],[-20.097,0.297],[0,0],[0,0],[2.512,0.042],[0,0],[0.053,0.006],[0,0],[0.166,0.023],[0.19,0.113],[0,0],[1.083,0.679],[4.173,4.215],[2.126,2.965],[2.441,3.149],[0.863,0.744],[0.607,0.304],[0.369,0.096],[0,0],[0.334,0.023],[0,0],[0.167,-0.024],[0.363,-0.119],[0.19,-0.118],[0.667,-0.465],[0.911,-1],[2.506,-4.07],[3.614,-8.804],[1.809,-4.851],[2.066,-4.923],[0.684,-1.09],[0.31,-0.369],[0.065,0.095],[0.541,0.893],[1.875,5.131],[2.541,11.829],[2.215,12.918],[1.369,6.881],[0.964,3.559],[0.714,1.839],[0.548,0.977],[0.785,1],[0.518,0.231],[0.619,0.147],[2.357,-0.184],[0.149,0],[2.56,-1.709],[1.328,-2.232],[1.316,-3.882],[1.643,-7.565],[2.286,-15.395],[1.917,-16.018],[1.119,-8.275],[1.417,-8.287],[0.488,-1.678],[1.215,3.155],[1.03,4.137],[3.28,17.311],[2.274,18.275],[1.119,9.442],[0.679,4.815],[0.435,2.451],[0.285,1.28],[0.387,1.352],[0.393,0.868],[0.607,0.744],[0.352,1.369],[4.577,-1.595],[0.648,-0.78],[0.631,-1.118],[1.185,-3.103],[1.16,-5.09],[1.596,-9.857],[2.476,-19.638],[2.673,-19.871],[0.721,-3.274],[0.553,2.894],[2.881,20.008],[1.464,20.912],[1.5,21.139],[1.018,10.696],[0.774,5.429],[0.577,2.78],[0.44,1.487],[0.648,1.625],[0.673,1.023],[0.827,0.672],[1.792,0.547],[-1.012,0.339],[1.362,-0.881],[1.173,-1.381],[1.977,-3.987],[1.393,-5.828],[1.5,-10.965],[1.769,-21.602],[2.356,-43.021],[1.304,-21.293],[0.769,-6.888],[0.106,0.589],[0.779,5.042],[1.161,10.293],[1.596,20.769],[2.269,41.366],[1.256,20.198],[1.138,10.024],[0.62,2.612],[0.536,1.428],[0.512,0.869],[1.161,1.161],[0.852,0.439],[0.72,0.06],[1.06,-0.672],[0.523,-0.571],[1.393,-2.024],[1.118,-2.965],[2.196,-10.298],[0.892,-9.697],[1.125,-19.043],[1.382,-36.984],[0.744,-17.34],[1.138,-16.632],[0.608,-3.881],[0.827,-3.667],[0.269,-0.595],[0.487,0.411],[0.814,1.161],[2.756,6.28],[1.5,7.197],[4.161,28.853],[0.791,6.548],[1.084,6.369],[0.648,1.62],[0.697,0.893],[0.405,0.197],[0.488,0.125],[1.196,0.036],[0,0],[0,0],[0,0],[0.561,-0.125],[0.917,-0.34],[1.697,-0.862],[5.012,-4.59],[2.988,-4.899],[1.465,-2.101],[0.815,-0.649],[0.393,-0.172],[0,0],[-0.035,-0.018],[0.304,0.017],[0.096,0.042],[0.314,0.226],[0.685,0.702],[1.292,1.91],[2.107,4.303],[6.745,17.437],[0.869,1.672],[0.572,0.78],[0.756,0.708],[0.339,0.096],[0.536,-0.036],[0,0],[0.328,0],[1.106,-0.428],[1.44,-1.232],[3.638,-5.357],[2.315,-4.44],[2.196,-3.018],[4.084,-2.769],[0,0],[0.022,0.006]],"v":[[297.074,-1.05],[295.467,-0.919],[289.61,1.403],[282.425,8.391],[275.155,19.774],[266.619,34.018],[263.703,37.131],[262.144,38.036],[261.376,38.22],[261.06,38.256],[260.941,38.268],[260.816,38.233],[258.256,35.571],[255.84,31.108],[247.762,9.308],[239.309,-16.063],[233.88,-29.773],[230.171,-36.791],[227.51,-40.291],[225.641,-41.988],[222.76,-43.387],[212.735,-40.244],[206.794,-33.672],[197.526,-19.569],[187.501,-6.92],[181.863,-4.158],[181.805,-4.158],[181.68,-4.33],[180.251,-7.485],[176.649,-24.975],[174.465,-44],[166.743,-127.291],[163.291,-149.704],[156.85,-172.908],[153.678,-178.962],[147.832,-184.95],[146.695,-185.569],[145.302,-186.159],[143.629,-186.611],[142.641,-186.766],[141.908,-186.843],[139.272,-186.659],[135.879,-185.176],[132.265,-181.456],[130.337,-178.057],[126.211,-165.562],[123.723,-153.347],[117.943,-103.766],[114.406,-52.441],[109.103,55.156],[105.799,111.059],[103.369,139.299],[101.382,155.145],[99.221,137.626],[94.988,78.247],[89.441,-44.387],[85.768,-107.117],[82.917,-138.881],[80.845,-154.96],[77.637,-171.503],[74.499,-180.706],[72.999,-183.504],[70.267,-186.921],[67.606,-188.915],[62.992,-190.48],[58.516,-190.218],[54.688,-188.522],[50.831,-184.807],[49.772,-183.242],[48.968,-181.819],[46.825,-176.86],[44.372,-168.145],[39.312,-135.494],[34.092,-71.115],[27.395,57.644],[23.395,121.733],[20.78,148.264],[20.454,146.152],[16.817,114.803],[11.68,51.507],[6.876,-11.622],[0.131,-74.526],[-2.964,-90.568],[-5.673,-99.236],[-8.679,-104.706],[-13.037,-108.522],[-17.198,-109.808],[-21.674,-109.391],[-26.793,-106.498],[-29.359,-103.641],[-32.157,-98.837],[-35.336,-90.467],[-39.318,-74.728],[-48.729,-13.754],[-55.801,45.817],[-58.492,66.871],[-62.141,40.548],[-69.386,-15.212],[-78.13,-69.65],[-81.22,-83.11],[-85.762,-96.795],[-87.631,-100.474],[-90.816,-104.629],[-94.132,-106.885],[-97.173,-107.695],[-99.572,-107.599],[-102.132,-106.843],[-104.097,-105.706],[-105.507,-104.504],[-106.501,-103.379],[-110.627,-95.67],[-112.805,-88.812],[-117.913,-62.686],[-121.264,-37.291],[-126.533,11.891],[-131.825,58.781],[-135.337,81.021],[-137.861,91.32],[-138.629,93.529],[-140.593,89.379],[-143.891,79.634],[-148.921,59.394],[-156.856,19.761],[-164.559,-17.659],[-169.809,-35.487],[-172.072,-40.041],[-174.244,-42.577],[-175.363,-43.321],[-176.869,-43.875],[-178.066,-44],[-179.239,-43.875],[-184.668,-40.267],[-187.477,-36.285],[-194.65,-20.635],[-200.103,-5.521],[-209.896,22.422],[-215.354,34.512],[-216.973,36.839],[-217.73,37.56],[-217.855,37.643],[-217.837,37.655],[-217.718,37.667],[-217.908,37.691],[-218.021,37.679],[-218.2,37.667],[-218.64,37.548],[-219.67,37.119],[-221.879,35.559],[-229.849,27.024],[-236.79,18.118],[-250.017,2.414],[-253.917,-0.562],[-255.077,-1.14],[-256.548,-1.592],[-257.107,-1.622],[-257.375,-1.652],[-257.822,-1.681],[-258.881,-1.669],[-266.852,-1.544],[-297.664,-1.08],[-297.664,0.938],[-266.846,1.403],[-258.875,1.528],[-257.875,1.545],[-257.738,1.563],[-257.47,1.599],[-256.958,1.676],[-256.375,1.926],[-255.583,2.349],[-252.381,4.962],[-240.041,20.588],[-233.296,29.797],[-224.956,39.25],[-222.045,41.375],[-220.164,42.244],[-219.063,42.548],[-218.444,42.619],[-217.551,42.667],[-217.152,42.619],[-216.259,42.387],[-215.515,42.06],[-214.944,41.709],[-213.283,40.256],[-211.027,37.22],[-204.854,24.475],[-194.305,-3.396],[-188.567,-18.147],[-181.542,-32.582],[-179.376,-35.529],[-178.441,-36.398],[-178.256,-36.106],[-176.715,-32.743],[-172.202,-15.897],[-165.339,21.32],[-158.172,61.365],[-153.415,82.325],[-150.004,93.112],[-147.445,98.725],[-145.468,101.738],[-141.736,104.91],[-140.141,105.529],[-138.224,105.808],[-136.48,105.613],[-134.307,104.743],[-130.575,100.826],[-127.866,94.701],[-124.8,83.259],[-120.764,60.365],[-114.675,13.23],[-108.638,-35.672],[-104.936,-60.59],[-99.745,-85.122],[-98.144,-89.973],[-94.995,-79.55],[-92.233,-66.823],[-84.28,-13.242],[-77.696,42.5],[-74.065,71.069],[-71.785,85.612],[-70.296,93.087],[-69.314,97.016],[-67.802,101.446],[-66.082,104.594],[-63.344,107.267],[-56.194,108.594],[-51.003,105.338],[-49.628,103.35],[-48.343,100.607],[-45.967,92.409],[-43.146,77.467],[-38.937,47.935],[-31.425,-11.509],[-21.847,-70.942],[-19.489,-80.598],[-17.995,-71.746],[-11.846,-10.134],[-7.435,52.876],[-2.393,116.65],[1.274,148.902],[4.066,165.342],[6.167,173.904],[7.721,178.492],[10.477,183.946],[13.78,187.63],[17.21,189.63],[23.014,190.35],[27.871,188.546],[30.675,186.118],[33.068,182.522],[36.461,172.712],[39.485,155.913],[42.902,123.345],[47.087,58.704],[53.724,-69.906],[58.7,-133.339],[61.421,-153.799],[61.713,-152.031],[63.725,-136.727],[66.582,-105.659],[70.487,-43.416],[76.988,79.283],[81.743,139.472],[86.357,169.7],[88.673,177.802],[90.846,182.546],[93.066,185.571],[98.823,189.024],[102.835,189.196],[107.216,187.546],[109.496,185.665],[110.847,184.004],[113.496,178.891],[115.865,170.682],[119.967,140.966],[122.092,112.154],[124.699,55.859],[128.64,-51.727],[131.277,-102.748],[136.069,-151.305],[138.177,-162.71],[141.272,-172.86],[142.088,-174.396],[143.832,-172.36],[146.088,-168.181],[152.166,-147.465],[155.898,-125.809],[165.435,-43.006],[168.107,-23.659],[172.5,-4.682],[175.035,0.366],[178.06,3.14],[179.305,3.676],[180.817,3.932],[181.888,3.908],[182.447,3.862],[183.019,3.807],[183.869,3.646],[185.53,3.242],[188.203,2.099],[192.597,-0.973],[203.759,-15.617],[212.384,-29.588],[217.045,-35.1],[219.438,-36.69],[220.545,-37.023],[220.801,-37.053],[220.778,-37.106],[221.313,-37.041],[221.885,-36.725],[222.897,-35.856],[224.909,-33.32],[228.385,-27.147],[233.975,-14.075],[252.03,32.994],[254.899,37.875],[256.804,40.167],[259.84,42.018],[260.947,42.155],[261.471,42.108],[261.785,42.06],[263.412,41.631],[266.025,40.036],[269.477,36.131],[277.787,21.225],[284.473,9.939],[290.842,3.289],[297.587,0.932],[297.587,-1.086]]}],"e":[{"i":[[0.363,-0.018],[0.703,-0.131],[2.333,-1.5],[2.417,-3.112],[2.489,-4.405],[3.488,-4.768],[1.06,-0.833],[0.44,-0.149],[0.523,-0.012],[0,0],[0.06,0],[0.054,0.035],[0.815,1.298],[0.744,1.595],[2.637,7.917],[3.161,8.941],[2.125,4.656],[1.475,2.351],[1.065,1.155],[0.732,0.548],[1.405,0.375],[2.436,-1.893],[1.709,-2.28],[3.048,-4.685],[3.804,-3.298],[1.649,-0.083],[0,0],[0.041,0.065],[0.439,1.226],[0.881,6.132],[0.637,6.489],[3.585,29.454],[1.44,7.584],[3.292,7.941],[1.356,2.054],[2.856,1.798],[0,0],[0.601,0.197],[0.554,0.119],[0.327,0.048],[0,0],[0.917,-0.125],[0.892,-0.608],[0.81,-1.161],[0.522,-1.089],[1.012,-4.089],[0.708,-4.077],[1.441,-16.817],[0.988,-17.406],[1.852,-36.872],[1.363,-18.805],[0.989,-9.394],[0.78,-5.22],[0.613,5.905],[1.096,20.061],[1.946,41.521],[1.561,21.067],[1.178,10.655],[0.815,5.399],[1.464,5.709],[1.577,3.435],[0.637,1.018],[1.28,1.268],[1.186,0.679],[0.041,-0.191],[0.649,-0.471],[0.978,-0.655],[0.785,-1.06],[0.279,-0.47],[0.22,-0.441],[0.536,-1.524],[0.66,-2.816],[1.245,-10.781],[1.363,-21.46],[2.173,-42.878],[1.685,-21.233],[1.066,-8.732],[0.106,0.72],[1.024,10.514],[1.541,21.079],[1.72,20.983],[3.179,21.049],[1.339,5.482],[1.262,3.137],[1.655,2.238],[2.411,1.345],[-0.767,-0.232],[1.452,-0.328],[1.137,-1],[0.643,-0.875],[0.714,-1.482],[0.858,-2.697],[1.107,-5.185],[2.571,-20.102],[2.339,-19.602],[0.946,-6.953],[1.143,8.756],[2.5,18.382],[3.619,17.935],[1.179,4.495],[2.054,4.714],[0.75,1.274],[1.572,1.53],[1.477,0.667],[1.077,0.096],[1.059,-0.197],[0.667,-0.358],[0.393,-0.364],[0.452,-0.417],[0.327,-0.381],[0.959,-2.375],[0.613,-2.245],[1.328,-8.584],[0.988,-8.382],[1.661,-16.037],[2,-15.186],[1.393,-7.185],[1.012,-3.185],[0.274,-0.697],[0.601,1.476],[0.976,3.339],[1.488,6.739],[2.476,12.87],[2.845,12.061],[2.321,5.899],[0.995,1.577],[1.113,0.923],[0.654,0.327],[0.142,0.006],[1.5,0.101],[0.387,-0.059],[1.185,-1.256],[0.797,-1.327],[2.018,-5.131],[1.702,-4.929],[3.328,-8.686],[2.077,-3.554],[0.54,-0.643],[0.209,-0.16],[0.036,-0.035],[-0.101,0.047],[0.096,-0.024],[0,0],[-0.03,0.012],[0,0],[0.143,0.023],[0.357,0.137],[0.733,0.608],[2.434,2.976],[2.22,2.905],[4.69,4.459],[1.453,0.851],[0,0],[0.488,0.125],[0.184,0.024],[0,0],[0.453,0.012],[0,0],[2.512,-0.036],[0,0],[0,0],[-20.097,-0.304],[-2.804,-0.048],[0,0],[0,-0.006],[0,0],[-0.137,-0.036],[-0.226,-0.089],[0,0],[-1.059,-1.006],[-4.262,-5.893],[-2.405,-3.148],[-3.387,-3.048],[-1.102,-0.649],[-0.75,-0.22],[-0.44,-0.048],[0,0],[-0.75,0.024],[0,0],[-0.28,0.107],[-0.185,0.096],[-0.16,0.131],[-0.44,0.488],[-0.648,1.024],[-1.845,4.411],[-3.625,9.715],[-2.053,4.953],[-2.757,4.435],[-0.744,0.816],[-0.286,0.22],[-0.06,-0.102],[-0.476,-1.244],[-1.292,-5.875],[-2.22,-12.893],[-2.732,-13.77],[-1.899,-7.103],[-1.376,-3.65],[-1.065,-1.929],[-0.84,-1.049],[-1.822,-0.989],[-0.547,-0.167],[-0.643,-0.047],[-0.702,0.076],[-0.649,0.417],[-0.839,1.173],[-0.679,1.952],[-0.84,3.792],[-1.155,7.696],[-1.922,16.031],[-2.221,16.549],[-1.387,8.322],[-2.226,7.852],[-0.577,1.524],[-0.904,-3.655],[-0.833,-4.322],[-2.297,-18.257],[-2.238,-18.87],[-1.345,-9.614],[-0.881,-4.906],[-0.578,-2.548],[-0.375,-1.357],[-0.709,-1.697],[-0.958,-1.381],[-1.69,-1.173],[0.119,0.5],[-1.256,0.965],[-0.322,0.56],[-0.333,0.826],[-0.608,2.583],[-0.809,4.929],[-1.298,9.858],[-2.524,19.982],[-4.161,19.448],[-0.858,3.144],[-0.447,-2.994],[-1.619,-20.811],[-1.476,-21.091],[-2.012,-21.384],[-1.523,-10.834],[-1.161,-5.571],[-0.863,-2.959],[-0.631,-1.602],[-1.405,-2.138],[-1.679,-1.369],[-1.441,-0.56],[-3.191,0.269],[-0.894,0.989],[-0.732,0.791],[-0.487,0.971],[-0.786,2.988],[-0.779,5.501],[-0.904,10.806],[-1.173,21.507],[-2.512,42.634],[-2.243,20.882],[-1.096,6.673],[-0.096,-0.595],[-0.595,-5.143],[-0.798,-10.382],[-1.16,-20.68],[-2.465,-40.366],[-2.143,-19.972],[-2.297,-10.31],[-1.048,-2.893],[-1.036,-1.804],[-1.012,-1.107],[-2.988,-0.805],[0.393,0.036],[-0.298,0.453],[-0.667,0.648],[-0.375,0.536],[-0.59,1.488],[-0.59,2.607],[-0.941,9.732],[-0.565,9.524],[-0.715,18.495],[-1.512,34.676],[-1.101,16.662],[-2.339,15.584],[-0.828,3.684],[-1.267,2.839],[-0.269,0.417],[-0.596,-0.893],[-0.686,-1.536],[-1.53,-7.144],[-1.048,-7.197],[-3.155,-26.132],[-1.035,-6.358],[-2.232,-6.393],[-1.243,-1.797],[-1.595,-0.875],[-0.489,-0.125],[-0.5,-0.047],[-0.423,0.006],[0,0],[0,0],[0,0],[-0.487,0.166],[-0.815,0.464],[-1.298,1.113],[-3.048,4.881],[-2.952,4.238],[-1.638,1.464],[-0.756,0.28],[-0.363,0.059],[0,0],[0.488,0.035],[0.244,0],[-0.179,-0.143],[-0.35,-0.364],[-0.643,-0.935],[-1.047,-2.143],[-1.685,-4.34],[-6.602,-13.466],[-1.089,-1.577],[-0.756,-0.744],[-1.387,-0.387],[-0.362,-0.03],[-0.196,0.012],[0,0],[-0.578,0.209],[-0.744,0.606],[-0.964,1.321],[-2.382,4.417],[-2.186,3.03],[-2.012,1.356],[0.077,0.161],[0,0]],"o":[[-0.363,0.035],[-1.416,0.196],[-2.352,1.477],[-2.394,3.113],[-2.523,4.368],[-0.893,1.149],[-0.513,0.394],[-0.197,0.036],[0,0],[0,0],[-0.036,-0.023],[-0.571,-0.138],[-0.869,-1.352],[-2.989,-6.43],[-2.626,-7.93],[-1.596,-4.471],[-1.06,-2.327],[-0.756,-1.167],[-0.524,-0.584],[-0.804,-0.547],[-4.405,-0.845],[-2.392,2.03],[-3.381,4.602],[-3.012,4.631],[-1.857,1.59],[0,0],[-0.036,-0.053],[-0.477,-0.715],[-1.709,-5.209],[-0.863,-6.179],[-2.548,-25.96],[-0.929,-7.358],[-1.524,-7.589],[-0.863,-1.988],[-1.364,-2.018],[0,0],[-0.339,-0.191],[-0.548,-0.172],[-0.721,-0.161],[0,0],[-1.827,-0.054],[-1.34,0.31],[-1.805,1.256],[-0.815,1.191],[-2.013,4.34],[-1,4.084],[-2.732,16.269],[-1.404,16.811],[-1.952,34.788],[-0.94,18.43],[-0.672,9.405],[-0.57,5.292],[-0.863,-5.72],[-1.928,-19.43],[-2.137,-40.158],[-0.964,-20.763],[-0.78,-10.537],[-0.597,-5.334],[-0.827,-5.417],[-0.78,-2.893],[-0.404,-0.875],[-0.619,-0.994],[-0.756,-0.678],[-0.256,-0.476],[0.476,-0.054],[-1.524,0.398],[-1.964,1.328],[-0.429,0.565],[-0.328,0.506],[-0.959,1.816],[-1.071,3.065],[-2.5,11.173],[-2.369,21.501],[-2.686,42.896],[-1.119,21.442],[-0.732,8.917],[-0.106,-0.696],[-1.477,-10.323],[-2.023,-21.055],[-1.525,-21.103],[-1.792,-20.996],[-0.833,-5.28],[-0.697,-2.757],[-0.69,-1.613],[-0.822,-1.048],[-0.827,-0.72],[-2.494,-0.167],[-2.411,0.714],[-1.149,1.03],[-1.28,1.768],[-1.387,2.953],[-1.661,5.363],[-4.256,20.638],[-2.507,20.085],[-0.852,7.077],[-1.316,-8.768],[-2.447,-18.763],[-2.536,-18.376],[-0.917,-4.495],[-1.208,-4.5],[-0.536,-1.191],[-0.774,-1.286],[-0.786,-0.744],[-0.553,-0.286],[0.452,-0.012],[-0.977,0.136],[-0.673,0.321],[-0.488,0.38],[-0.399,0.399],[-2.322,2.971],[-0.899,2.363],[-2.358,8.923],[-1.292,8.561],[-1.971,16.745],[-1.66,16.031],[-1.006,7.578],[-0.708,3.584],[-0.232,0.767],[-0.696,-1.232],[-1.25,-3.102],[-1.941,-6.697],[-2.965,-13.488],[-2.488,-12.876],[-1.459,-6.042],[-0.62,-1.494],[-0.559,-0.81],[-0.268,-0.214],[-0.459,-0.256],[-0.477,-0.047],[-0.387,0.024],[-2.946,0.762],[-1.143,1.333],[-3.09,5.286],[-1.983,5.137],[-3.393,9.852],[-1.672,4.315],[-0.518,0.869],[-0.28,0.328],[-0.053,0.048],[-0.047,0.036],[0.024,-0.024],[0,0],[-0.03,0],[0,0],[-0.107,0.024],[-0.298,-0.048],[-0.732,-0.417],[-2.934,-2.451],[-2.435,-3],[-4.465,-5.792],[-1.209,-1.089],[0,0],[-0.453,-0.178],[-0.22,-0.006],[0,0],[-0.167,-0.011],[0,0],[-2.804,0.047],[-20.097,0.297],[0,0],[0,0],[2.512,0.042],[0,0],[0.053,0.006],[0,0],[0.166,0.023],[0.19,0.113],[0,0],[1.083,0.679],[4.173,4.215],[2.126,2.965],[2.441,3.149],[0.863,0.744],[0.607,0.304],[0.369,0.096],[0,0],[0.334,0.023],[0,0],[0.167,-0.024],[0.363,-0.119],[0.19,-0.118],[0.667,-0.465],[0.911,-1],[2.506,-4.07],[3.614,-8.804],[1.809,-4.851],[2.066,-4.923],[0.684,-1.09],[0.31,-0.369],[0.065,0.095],[0.541,0.893],[1.875,5.131],[2.541,11.829],[2.215,12.918],[1.369,6.881],[0.964,3.559],[0.714,1.839],[0.548,0.977],[0.785,1],[0.518,0.231],[0.619,0.147],[2.357,-0.184],[0.149,0],[2.56,-1.709],[1.328,-2.232],[1.316,-3.882],[1.643,-7.565],[2.286,-15.395],[1.917,-16.018],[1.119,-8.275],[1.417,-8.287],[0.488,-1.678],[1.215,3.155],[1.03,4.137],[3.28,17.311],[2.274,18.275],[1.119,9.442],[0.679,4.815],[0.435,2.451],[0.285,1.28],[0.387,1.352],[0.393,0.868],[0.607,0.744],[0.352,1.369],[4.577,-1.595],[0.648,-0.78],[0.631,-1.118],[1.185,-3.103],[1.16,-5.09],[1.596,-9.857],[2.476,-19.638],[2.673,-19.871],[0.721,-3.274],[0.553,2.894],[2.881,20.008],[1.464,20.912],[1.5,21.139],[1.018,10.696],[0.774,5.429],[0.577,2.78],[0.44,1.487],[0.648,1.625],[0.673,1.023],[0.827,0.672],[1.792,0.547],[-1.012,0.339],[1.362,-0.881],[1.173,-1.381],[1.977,-3.987],[1.393,-5.828],[1.5,-10.965],[1.769,-21.602],[2.356,-43.021],[1.304,-21.293],[0.769,-6.888],[0.106,0.589],[0.779,5.042],[1.161,10.293],[1.596,20.769],[2.269,41.366],[1.256,20.198],[1.138,10.024],[0.62,2.612],[0.536,1.428],[0.512,0.869],[1.161,1.161],[0.852,0.439],[0.72,0.06],[1.06,-0.672],[0.523,-0.571],[1.393,-2.024],[1.118,-2.965],[2.196,-10.298],[0.892,-9.697],[1.125,-19.043],[1.382,-36.984],[0.744,-17.34],[1.138,-16.632],[0.608,-3.881],[0.827,-3.667],[0.269,-0.595],[0.487,0.411],[0.814,1.161],[2.756,6.28],[1.5,7.197],[4.161,28.853],[0.791,6.548],[1.084,6.369],[0.648,1.62],[0.697,0.893],[0.405,0.197],[0.488,0.125],[1.196,0.036],[0,0],[0,0],[0,0],[0.561,-0.125],[0.917,-0.34],[1.697,-0.862],[5.012,-4.59],[2.988,-4.899],[1.465,-2.101],[0.815,-0.649],[0.393,-0.172],[0,0],[-0.035,-0.018],[0.304,0.017],[0.096,0.042],[0.314,0.226],[0.685,0.702],[1.292,1.91],[2.107,4.303],[6.745,17.437],[0.869,1.672],[0.572,0.78],[0.756,0.708],[0.339,0.096],[0.536,-0.036],[0,0],[0.328,0],[1.106,-0.428],[1.44,-1.232],[3.638,-5.357],[2.315,-4.44],[2.196,-3.018],[4.084,-2.769],[0,0],[0.022,0.006]],"v":[[297.074,-1.05],[295.467,-0.919],[289.61,1.403],[282.425,8.391],[275.155,19.774],[266.619,34.018],[263.703,37.131],[262.144,38.036],[261.376,38.22],[261.06,38.256],[260.941,38.268],[260.816,38.233],[258.256,35.571],[255.84,31.108],[247.762,9.308],[239.309,-16.063],[233.88,-29.773],[230.171,-36.791],[227.51,-40.291],[225.641,-41.988],[222.76,-43.387],[212.735,-40.244],[206.794,-33.672],[197.526,-19.569],[187.501,-6.92],[181.863,-4.158],[181.805,-4.158],[181.68,-4.33],[180.251,-7.485],[176.649,-24.975],[174.465,-44],[166.743,-127.291],[163.291,-149.704],[156.85,-172.908],[153.678,-178.962],[147.832,-184.95],[146.695,-185.569],[145.302,-186.159],[143.629,-186.611],[142.641,-186.766],[141.908,-186.843],[139.272,-186.659],[135.879,-185.176],[132.265,-181.456],[130.337,-178.057],[126.211,-165.562],[123.723,-153.347],[117.943,-103.766],[114.406,-52.441],[109.103,55.156],[105.799,111.059],[103.369,139.299],[101.382,155.145],[99.221,137.626],[94.988,78.247],[89.441,-44.387],[85.768,-107.117],[82.917,-138.881],[80.845,-154.96],[77.637,-171.503],[74.499,-180.706],[72.999,-183.504],[70.267,-186.921],[67.606,-188.915],[62.992,-190.48],[58.516,-190.218],[54.688,-188.522],[50.831,-184.807],[49.772,-183.242],[48.968,-181.819],[46.825,-176.86],[44.372,-168.145],[39.312,-135.494],[34.092,-71.115],[27.395,57.644],[23.395,121.733],[20.78,148.264],[20.454,146.152],[16.817,114.803],[11.68,51.507],[6.876,-11.622],[0.131,-74.526],[-2.964,-90.568],[-5.673,-99.236],[-8.679,-104.706],[-13.037,-108.522],[-17.198,-109.808],[-21.674,-109.391],[-26.793,-106.498],[-29.359,-103.641],[-32.157,-98.837],[-35.336,-90.467],[-39.318,-74.728],[-48.729,-13.754],[-55.801,45.817],[-58.492,66.871],[-62.141,40.548],[-69.386,-15.212],[-78.13,-69.65],[-81.22,-83.11],[-85.762,-96.795],[-87.631,-100.474],[-90.816,-104.629],[-94.132,-106.885],[-97.173,-107.695],[-99.572,-107.599],[-102.132,-106.843],[-104.097,-105.706],[-105.507,-104.504],[-106.501,-103.379],[-110.627,-95.67],[-112.805,-88.812],[-117.913,-62.686],[-121.264,-37.291],[-126.533,11.891],[-131.825,58.781],[-135.337,81.021],[-137.861,91.32],[-138.629,93.529],[-140.593,89.379],[-143.891,79.634],[-148.921,59.394],[-156.856,19.761],[-164.559,-17.659],[-169.809,-35.487],[-172.072,-40.041],[-174.244,-42.577],[-175.363,-43.321],[-176.869,-43.875],[-178.066,-44],[-179.239,-43.875],[-184.668,-40.267],[-187.477,-36.285],[-194.65,-20.635],[-200.103,-5.521],[-209.896,22.422],[-215.354,34.512],[-216.973,36.839],[-217.73,37.56],[-217.855,37.643],[-217.837,37.655],[-217.718,37.667],[-217.908,37.691],[-218.021,37.679],[-218.2,37.667],[-218.64,37.548],[-219.67,37.119],[-221.879,35.559],[-229.849,27.024],[-236.79,18.118],[-250.017,2.414],[-253.917,-0.562],[-255.077,-1.14],[-256.548,-1.592],[-257.107,-1.622],[-257.375,-1.652],[-257.822,-1.681],[-258.881,-1.669],[-266.852,-1.544],[-297.664,-1.08],[-297.664,0.938],[-266.846,1.403],[-258.875,1.528],[-257.875,1.545],[-257.738,1.563],[-257.47,1.599],[-256.958,1.676],[-256.375,1.926],[-255.583,2.349],[-252.381,4.962],[-240.041,20.588],[-233.296,29.797],[-224.956,39.25],[-222.045,41.375],[-220.164,42.244],[-219.063,42.548],[-218.444,42.619],[-217.551,42.667],[-217.152,42.619],[-216.259,42.387],[-215.515,42.06],[-214.944,41.709],[-213.283,40.256],[-211.027,37.22],[-204.854,24.475],[-194.305,-3.396],[-188.567,-18.147],[-181.542,-32.582],[-179.376,-35.529],[-178.441,-36.398],[-178.256,-36.106],[-176.715,-32.743],[-172.202,-15.897],[-165.339,21.32],[-158.172,61.365],[-153.415,82.325],[-150.004,93.112],[-147.445,98.725],[-145.468,101.738],[-141.736,104.91],[-140.141,105.529],[-138.224,105.808],[-136.48,105.613],[-134.307,104.743],[-130.575,100.826],[-127.866,94.701],[-124.8,83.259],[-120.764,60.365],[-114.675,13.23],[-108.638,-35.672],[-104.936,-60.59],[-99.745,-85.122],[-98.144,-89.973],[-94.995,-79.55],[-92.233,-66.823],[-84.28,-13.242],[-77.696,42.5],[-74.065,71.069],[-71.785,85.612],[-70.296,93.087],[-69.314,97.016],[-67.802,101.446],[-66.082,104.594],[-63.344,107.267],[-56.194,108.594],[-51.003,105.338],[-49.628,103.35],[-48.343,100.607],[-45.967,92.409],[-43.146,77.467],[-38.937,47.935],[-31.425,-11.509],[-21.847,-70.942],[-19.489,-80.598],[-17.995,-71.746],[-11.846,-10.134],[-7.435,52.876],[-2.393,116.65],[1.274,148.902],[4.066,165.342],[6.167,173.904],[7.721,178.492],[10.477,183.946],[13.78,187.63],[17.21,189.63],[23.014,190.35],[27.871,188.546],[30.675,186.118],[33.068,182.522],[36.461,172.712],[39.485,155.913],[42.902,123.345],[47.087,58.704],[53.724,-69.906],[58.7,-133.339],[61.421,-153.799],[61.713,-152.031],[63.725,-136.727],[66.582,-105.659],[70.487,-43.416],[76.988,79.283],[81.743,139.472],[86.357,169.7],[88.673,177.802],[90.846,182.546],[93.066,185.571],[98.823,189.024],[102.835,189.196],[107.216,187.546],[109.496,185.665],[110.847,184.004],[113.496,178.891],[115.865,170.682],[119.967,140.966],[122.092,112.154],[124.699,55.859],[128.64,-51.727],[131.277,-102.748],[136.069,-151.305],[138.177,-162.71],[141.272,-172.86],[142.088,-174.396],[143.832,-172.36],[146.088,-168.181],[152.166,-147.465],[155.898,-125.809],[165.435,-43.006],[168.107,-23.659],[172.5,-4.682],[175.035,0.366],[178.06,3.14],[179.305,3.676],[180.817,3.932],[181.888,3.908],[182.447,3.862],[183.019,3.807],[183.869,3.646],[185.53,3.242],[188.203,2.099],[192.597,-0.973],[203.759,-15.617],[212.384,-29.588],[217.045,-35.1],[219.438,-36.69],[220.545,-37.023],[220.801,-37.053],[220.778,-37.106],[221.313,-37.041],[221.885,-36.725],[222.897,-35.856],[224.909,-33.32],[228.385,-27.147],[233.975,-14.075],[252.03,32.994],[254.899,37.875],[256.804,40.167],[259.84,42.018],[260.947,42.155],[261.471,42.108],[261.785,42.06],[263.412,41.631],[266.025,40.036],[269.477,36.131],[277.787,21.225],[284.473,9.939],[290.842,3.289],[297.587,0.932],[297.587,-1.086]]}]},{"i":{"x":0.341,"y":1},"o":{"x":0.167,"y":0},"n":"0p341_1_0p167_0","t":22,"s":[{"i":[[0.363,-0.018],[0.703,-0.131],[2.333,-1.5],[2.417,-3.112],[2.489,-4.405],[3.488,-4.768],[1.06,-0.833],[0.44,-0.149],[0.523,-0.012],[0,0],[0.06,0],[0.054,0.035],[0.815,1.298],[0.744,1.595],[2.637,7.917],[3.161,8.941],[2.125,4.656],[1.475,2.351],[1.065,1.155],[0.732,0.548],[1.405,0.375],[2.436,-1.893],[1.709,-2.28],[3.048,-4.685],[3.804,-3.298],[1.649,-0.083],[0,0],[0.041,0.065],[0.439,1.226],[0.881,6.132],[0.637,6.489],[3.585,29.454],[1.44,7.584],[3.292,7.941],[1.356,2.054],[2.856,1.798],[0,0],[0.601,0.197],[0.554,0.119],[0.327,0.048],[0,0],[0.917,-0.125],[0.892,-0.608],[0.81,-1.161],[0.522,-1.089],[1.012,-4.089],[0.708,-4.077],[1.441,-16.817],[0.988,-17.406],[1.852,-36.872],[1.363,-18.805],[0.989,-9.394],[0.78,-5.22],[0.613,5.905],[1.096,20.061],[1.946,41.521],[1.561,21.067],[1.178,10.655],[0.815,5.399],[1.464,5.709],[1.577,3.435],[0.637,1.018],[1.28,1.268],[1.186,0.679],[0.041,-0.191],[0.649,-0.471],[0.978,-0.655],[0.785,-1.06],[0.279,-0.47],[0.22,-0.441],[0.536,-1.524],[0.66,-2.816],[1.245,-10.781],[1.363,-21.46],[2.173,-42.878],[1.685,-21.233],[1.066,-8.732],[0.106,0.72],[1.024,10.514],[1.541,21.079],[1.72,20.983],[3.179,21.049],[1.339,5.482],[1.262,3.137],[1.655,2.238],[2.411,1.345],[-0.767,-0.232],[1.452,-0.328],[1.137,-1],[0.643,-0.875],[0.714,-1.482],[0.858,-2.697],[1.107,-5.185],[2.571,-20.102],[2.339,-19.602],[0.946,-6.953],[1.143,8.756],[2.5,18.382],[3.619,17.935],[1.179,4.495],[2.054,4.714],[0.75,1.274],[1.572,1.53],[1.477,0.667],[1.077,0.096],[1.059,-0.197],[0.667,-0.358],[0.393,-0.364],[0.452,-0.417],[0.327,-0.381],[0.959,-2.375],[0.613,-2.245],[1.328,-8.584],[0.988,-8.382],[1.661,-16.037],[2,-15.186],[1.393,-7.185],[1.012,-3.185],[0.274,-0.697],[0.601,1.476],[0.976,3.339],[1.488,6.739],[2.476,12.87],[2.845,12.061],[2.321,5.899],[0.995,1.577],[1.113,0.923],[0.654,0.327],[0.142,0.006],[1.5,0.101],[0.387,-0.059],[1.185,-1.256],[0.797,-1.327],[2.018,-5.131],[1.702,-4.929],[3.328,-8.686],[2.077,-3.554],[0.54,-0.643],[0.209,-0.16],[0.036,-0.035],[-0.101,0.047],[0.096,-0.024],[0,0],[-0.03,0.012],[0,0],[0.143,0.023],[0.357,0.137],[0.733,0.608],[2.434,2.976],[2.22,2.905],[4.69,4.459],[1.453,0.851],[0,0],[0.488,0.125],[0.184,0.024],[0,0],[0.453,0.012],[0,0],[2.512,-0.036],[0,0],[0,0],[-20.097,-0.304],[-2.804,-0.048],[0,0],[0,-0.006],[0,0],[-0.137,-0.036],[-0.226,-0.089],[0,0],[-1.059,-1.006],[-4.262,-5.893],[-2.405,-3.148],[-3.387,-3.048],[-1.102,-0.649],[-0.75,-0.22],[-0.44,-0.048],[0,0],[-0.75,0.024],[0,0],[-0.28,0.107],[-0.185,0.096],[-0.16,0.131],[-0.44,0.488],[-0.648,1.024],[-1.845,4.411],[-3.625,9.715],[-2.053,4.953],[-2.757,4.435],[-0.744,0.816],[-0.286,0.22],[-0.06,-0.102],[-0.476,-1.244],[-1.292,-5.875],[-2.22,-12.893],[-2.732,-13.77],[-1.899,-7.103],[-1.376,-3.65],[-1.065,-1.929],[-0.84,-1.049],[-1.822,-0.989],[-0.547,-0.167],[-0.643,-0.047],[-0.702,0.076],[-0.649,0.417],[-0.839,1.173],[-0.679,1.952],[-0.84,3.792],[-1.155,7.696],[-1.922,16.031],[-2.221,16.549],[-1.387,8.322],[-2.226,7.852],[-0.577,1.524],[-0.904,-3.655],[-0.833,-4.322],[-2.297,-18.257],[-2.238,-18.87],[-1.345,-9.614],[-0.881,-4.906],[-0.578,-2.548],[-0.375,-1.357],[-0.709,-1.697],[-0.958,-1.381],[-1.69,-1.173],[0.119,0.5],[-1.256,0.965],[-0.322,0.56],[-0.333,0.826],[-0.608,2.583],[-0.809,4.929],[-1.298,9.858],[-2.524,19.982],[-4.161,19.448],[-0.858,3.144],[-0.447,-2.994],[-1.619,-20.811],[-1.476,-21.091],[-2.012,-21.384],[-1.523,-10.834],[-1.161,-5.571],[-0.863,-2.959],[-0.631,-1.602],[-1.405,-2.138],[-1.679,-1.369],[-1.441,-0.56],[-3.191,0.269],[-0.894,0.989],[-0.732,0.791],[-0.487,0.971],[-0.786,2.988],[-0.779,5.501],[-0.904,10.806],[-1.173,21.507],[-2.512,42.634],[-2.243,20.882],[-1.096,6.673],[-0.096,-0.595],[-0.595,-5.143],[-0.798,-10.382],[-1.16,-20.68],[-2.465,-40.366],[-2.143,-19.972],[-2.297,-10.31],[-1.048,-2.893],[-1.036,-1.804],[-1.012,-1.107],[-2.988,-0.805],[0.393,0.036],[-0.298,0.453],[-0.667,0.648],[-0.375,0.536],[-0.59,1.488],[-0.59,2.607],[-0.941,9.732],[-0.565,9.524],[-0.715,18.495],[-1.512,34.676],[-1.101,16.662],[-2.339,15.584],[-0.828,3.684],[-1.267,2.839],[-0.269,0.417],[-0.596,-0.893],[-0.686,-1.536],[-1.53,-7.144],[-1.048,-7.197],[-3.155,-26.132],[-1.035,-6.358],[-2.232,-6.393],[-1.243,-1.797],[-1.595,-0.875],[-0.489,-0.125],[-0.5,-0.047],[-0.423,0.006],[0,0],[0,0],[0,0],[-0.487,0.166],[-0.815,0.464],[-1.298,1.113],[-3.048,4.881],[-2.952,4.238],[-1.638,1.464],[-0.756,0.28],[-0.363,0.059],[0,0],[0.488,0.035],[0.244,0],[-0.179,-0.143],[-0.35,-0.364],[-0.643,-0.935],[-1.047,-2.143],[-1.685,-4.34],[-6.602,-13.466],[-1.089,-1.577],[-0.756,-0.744],[-1.387,-0.387],[-0.362,-0.03],[-0.196,0.012],[0,0],[-0.578,0.209],[-0.744,0.606],[-0.964,1.321],[-2.382,4.417],[-2.186,3.03],[-2.012,1.356],[0.077,0.161],[0,0]],"o":[[-0.363,0.035],[-1.416,0.196],[-2.352,1.477],[-2.394,3.113],[-2.523,4.368],[-0.893,1.149],[-0.513,0.394],[-0.197,0.036],[0,0],[0,0],[-0.036,-0.023],[-0.571,-0.138],[-0.869,-1.352],[-2.989,-6.43],[-2.626,-7.93],[-1.596,-4.471],[-1.06,-2.327],[-0.756,-1.167],[-0.524,-0.584],[-0.804,-0.547],[-4.405,-0.845],[-2.392,2.03],[-3.381,4.602],[-3.012,4.631],[-1.857,1.59],[0,0],[-0.036,-0.053],[-0.477,-0.715],[-1.709,-5.209],[-0.863,-6.179],[-2.548,-25.96],[-0.929,-7.358],[-1.524,-7.589],[-0.863,-1.988],[-1.364,-2.018],[0,0],[-0.339,-0.191],[-0.548,-0.172],[-0.721,-0.161],[0,0],[-1.827,-0.054],[-1.34,0.31],[-1.805,1.256],[-0.815,1.191],[-2.013,4.34],[-1,4.084],[-2.732,16.269],[-1.404,16.811],[-1.952,34.788],[-0.94,18.43],[-0.672,9.405],[-0.57,5.292],[-0.863,-5.72],[-1.928,-19.43],[-2.137,-40.158],[-0.964,-20.763],[-0.78,-10.537],[-0.597,-5.334],[-0.827,-5.417],[-0.78,-2.893],[-0.404,-0.875],[-0.619,-0.994],[-0.756,-0.678],[-0.256,-0.476],[0.476,-0.054],[-1.524,0.398],[-1.964,1.328],[-0.429,0.565],[-0.328,0.506],[-0.959,1.816],[-1.071,3.065],[-2.5,11.173],[-2.369,21.501],[-2.686,42.896],[-1.119,21.442],[-0.732,8.917],[-0.106,-0.696],[-1.477,-10.323],[-2.023,-21.055],[-1.525,-21.103],[-1.792,-20.996],[-0.833,-5.28],[-0.697,-2.757],[-0.69,-1.613],[-0.822,-1.048],[-0.827,-0.72],[-2.494,-0.167],[-2.411,0.714],[-1.149,1.03],[-1.28,1.768],[-1.387,2.953],[-1.661,5.363],[-4.256,20.638],[-2.507,20.085],[-0.852,7.077],[-1.316,-8.768],[-2.447,-18.763],[-2.536,-18.376],[-0.917,-4.495],[-1.208,-4.5],[-0.536,-1.191],[-0.774,-1.286],[-0.786,-0.744],[-0.553,-0.286],[0.452,-0.012],[-0.977,0.136],[-0.673,0.321],[-0.488,0.38],[-0.399,0.399],[-2.322,2.971],[-0.899,2.363],[-2.358,8.923],[-1.292,8.561],[-1.971,16.745],[-1.66,16.031],[-1.006,7.578],[-0.708,3.584],[-0.232,0.767],[-0.696,-1.232],[-1.25,-3.102],[-1.941,-6.697],[-2.965,-13.488],[-2.488,-12.876],[-1.459,-6.042],[-0.62,-1.494],[-0.559,-0.81],[-0.268,-0.214],[-0.459,-0.256],[-0.477,-0.047],[-0.387,0.024],[-2.946,0.762],[-1.143,1.333],[-3.09,5.286],[-1.983,5.137],[-3.393,9.852],[-1.672,4.315],[-0.518,0.869],[-0.28,0.328],[-0.053,0.048],[-0.047,0.036],[0.024,-0.024],[0,0],[-0.03,0],[0,0],[-0.107,0.024],[-0.298,-0.048],[-0.732,-0.417],[-2.934,-2.451],[-2.435,-3],[-4.465,-5.792],[-1.209,-1.089],[0,0],[-0.453,-0.178],[-0.22,-0.006],[0,0],[-0.167,-0.011],[0,0],[-2.804,0.047],[-20.097,0.297],[0,0],[0,0],[2.512,0.042],[0,0],[0.053,0.006],[0,0],[0.166,0.023],[0.19,0.113],[0,0],[1.083,0.679],[4.173,4.215],[2.126,2.965],[2.441,3.149],[0.863,0.744],[0.607,0.304],[0.369,0.096],[0,0],[0.334,0.023],[0,0],[0.167,-0.024],[0.363,-0.119],[0.19,-0.118],[0.667,-0.465],[0.911,-1],[2.506,-4.07],[3.614,-8.804],[1.809,-4.851],[2.066,-4.923],[0.684,-1.09],[0.31,-0.369],[0.065,0.095],[0.541,0.893],[1.875,5.131],[2.541,11.829],[2.215,12.918],[1.369,6.881],[0.964,3.559],[0.714,1.839],[0.548,0.977],[0.785,1],[0.518,0.231],[0.619,0.147],[2.357,-0.184],[0.149,0],[2.56,-1.709],[1.328,-2.232],[1.316,-3.882],[1.643,-7.565],[2.286,-15.395],[1.917,-16.018],[1.119,-8.275],[1.417,-8.287],[0.488,-1.678],[1.215,3.155],[1.03,4.137],[3.28,17.311],[2.274,18.275],[1.119,9.442],[0.679,4.815],[0.435,2.451],[0.285,1.28],[0.387,1.352],[0.393,0.868],[0.607,0.744],[0.352,1.369],[4.577,-1.595],[0.648,-0.78],[0.631,-1.118],[1.185,-3.103],[1.16,-5.09],[1.596,-9.857],[2.476,-19.638],[2.673,-19.871],[0.721,-3.274],[0.553,2.894],[2.881,20.008],[1.464,20.912],[1.5,21.139],[1.018,10.696],[0.774,5.429],[0.577,2.78],[0.44,1.487],[0.648,1.625],[0.673,1.023],[0.827,0.672],[1.792,0.547],[-1.012,0.339],[1.362,-0.881],[1.173,-1.381],[1.977,-3.987],[1.393,-5.828],[1.5,-10.965],[1.769,-21.602],[2.356,-43.021],[1.304,-21.293],[0.769,-6.888],[0.106,0.589],[0.779,5.042],[1.161,10.293],[1.596,20.769],[2.269,41.366],[1.256,20.198],[1.138,10.024],[0.62,2.612],[0.536,1.428],[0.512,0.869],[1.161,1.161],[0.852,0.439],[0.72,0.06],[1.06,-0.672],[0.523,-0.571],[1.393,-2.024],[1.118,-2.965],[2.196,-10.298],[0.892,-9.697],[1.125,-19.043],[1.382,-36.984],[0.744,-17.34],[1.138,-16.632],[0.608,-3.881],[0.827,-3.667],[0.269,-0.595],[0.487,0.411],[0.814,1.161],[2.756,6.28],[1.5,7.197],[4.161,28.853],[0.791,6.548],[1.084,6.369],[0.648,1.62],[0.697,0.893],[0.405,0.197],[0.488,0.125],[1.196,0.036],[0,0],[0,0],[0,0],[0.561,-0.125],[0.917,-0.34],[1.697,-0.862],[5.012,-4.59],[2.988,-4.899],[1.465,-2.101],[0.815,-0.649],[0.393,-0.172],[0,0],[-0.035,-0.018],[0.304,0.017],[0.096,0.042],[0.314,0.226],[0.685,0.702],[1.292,1.91],[2.107,4.303],[6.745,17.437],[0.869,1.672],[0.572,0.78],[0.756,0.708],[0.339,0.096],[0.536,-0.036],[0,0],[0.328,0],[1.106,-0.428],[1.44,-1.232],[3.638,-5.357],[2.315,-4.44],[2.196,-3.018],[4.084,-2.769],[0,0],[0.022,0.006]],"v":[[297.074,-1.05],[295.467,-0.919],[289.61,1.403],[282.425,8.391],[275.155,19.774],[266.619,34.018],[263.703,37.131],[262.144,38.036],[261.376,38.22],[261.06,38.256],[260.941,38.268],[260.816,38.233],[258.256,35.571],[255.84,31.108],[247.762,9.308],[239.309,-16.063],[233.88,-29.773],[230.171,-36.791],[227.51,-40.291],[225.641,-41.988],[222.76,-43.387],[212.735,-40.244],[206.794,-33.672],[197.526,-19.569],[187.501,-6.92],[181.863,-4.158],[181.805,-4.158],[181.68,-4.33],[180.251,-7.485],[176.649,-24.975],[174.465,-44],[166.743,-127.291],[163.291,-149.704],[156.85,-172.908],[153.678,-178.962],[147.832,-184.95],[146.695,-185.569],[145.302,-186.159],[143.629,-186.611],[142.641,-186.766],[141.908,-186.843],[139.272,-186.659],[135.879,-185.176],[132.265,-181.456],[130.337,-178.057],[126.211,-165.562],[123.723,-153.347],[117.943,-103.766],[114.406,-52.441],[109.103,55.156],[105.799,111.059],[103.369,139.299],[101.382,155.145],[99.221,137.626],[94.988,78.247],[89.441,-44.387],[85.768,-107.117],[82.917,-138.881],[80.845,-154.96],[77.637,-171.503],[74.499,-180.706],[72.999,-183.504],[70.267,-186.921],[67.606,-188.915],[62.992,-190.48],[58.516,-190.218],[54.688,-188.522],[50.831,-184.807],[49.772,-183.242],[48.968,-181.819],[46.825,-176.86],[44.372,-168.145],[39.312,-135.494],[34.092,-71.115],[27.395,57.644],[23.395,121.733],[20.78,148.264],[20.454,146.152],[16.817,114.803],[11.68,51.507],[6.876,-11.622],[0.131,-74.526],[-2.964,-90.568],[-5.673,-99.236],[-8.679,-104.706],[-13.037,-108.522],[-17.198,-109.808],[-21.674,-109.391],[-26.793,-106.498],[-29.359,-103.641],[-32.157,-98.837],[-35.336,-90.467],[-39.318,-74.728],[-48.729,-13.754],[-55.801,45.817],[-58.492,66.871],[-62.141,40.548],[-69.386,-15.212],[-78.13,-69.65],[-81.22,-83.11],[-85.762,-96.795],[-87.631,-100.474],[-90.816,-104.629],[-94.132,-106.885],[-97.173,-107.695],[-99.572,-107.599],[-102.132,-106.843],[-104.097,-105.706],[-105.507,-104.504],[-106.501,-103.379],[-110.627,-95.67],[-112.805,-88.812],[-117.913,-62.686],[-121.264,-37.291],[-126.533,11.891],[-131.825,58.781],[-135.337,81.021],[-137.861,91.32],[-138.629,93.529],[-140.593,89.379],[-143.891,79.634],[-148.921,59.394],[-156.856,19.761],[-164.559,-17.659],[-169.809,-35.487],[-172.072,-40.041],[-174.244,-42.577],[-175.363,-43.321],[-176.869,-43.875],[-178.066,-44],[-179.239,-43.875],[-184.668,-40.267],[-187.477,-36.285],[-194.65,-20.635],[-200.103,-5.521],[-209.896,22.422],[-215.354,34.512],[-216.973,36.839],[-217.73,37.56],[-217.855,37.643],[-217.837,37.655],[-217.718,37.667],[-217.908,37.691],[-218.021,37.679],[-218.2,37.667],[-218.64,37.548],[-219.67,37.119],[-221.879,35.559],[-229.849,27.024],[-236.79,18.118],[-250.017,2.414],[-253.917,-0.562],[-255.077,-1.14],[-256.548,-1.592],[-257.107,-1.622],[-257.375,-1.652],[-257.822,-1.681],[-258.881,-1.669],[-266.852,-1.544],[-297.664,-1.08],[-297.664,0.938],[-266.846,1.403],[-258.875,1.528],[-257.875,1.545],[-257.738,1.563],[-257.47,1.599],[-256.958,1.676],[-256.375,1.926],[-255.583,2.349],[-252.381,4.962],[-240.041,20.588],[-233.296,29.797],[-224.956,39.25],[-222.045,41.375],[-220.164,42.244],[-219.063,42.548],[-218.444,42.619],[-217.551,42.667],[-217.152,42.619],[-216.259,42.387],[-215.515,42.06],[-214.944,41.709],[-213.283,40.256],[-211.027,37.22],[-204.854,24.475],[-194.305,-3.396],[-188.567,-18.147],[-181.542,-32.582],[-179.376,-35.529],[-178.441,-36.398],[-178.256,-36.106],[-176.715,-32.743],[-172.202,-15.897],[-165.339,21.32],[-158.172,61.365],[-153.415,82.325],[-150.004,93.112],[-147.445,98.725],[-145.468,101.738],[-141.736,104.91],[-140.141,105.529],[-138.224,105.808],[-136.48,105.613],[-134.307,104.743],[-130.575,100.826],[-127.866,94.701],[-124.8,83.259],[-120.764,60.365],[-114.675,13.23],[-108.638,-35.672],[-104.936,-60.59],[-99.745,-85.122],[-98.144,-89.973],[-94.995,-79.55],[-92.233,-66.823],[-84.28,-13.242],[-77.696,42.5],[-74.065,71.069],[-71.785,85.612],[-70.296,93.087],[-69.314,97.016],[-67.802,101.446],[-66.082,104.594],[-63.344,107.267],[-56.194,108.594],[-51.003,105.338],[-49.628,103.35],[-48.343,100.607],[-45.967,92.409],[-43.146,77.467],[-38.937,47.935],[-31.425,-11.509],[-21.847,-70.942],[-19.489,-80.598],[-17.995,-71.746],[-11.846,-10.134],[-7.435,52.876],[-2.393,116.65],[1.274,148.902],[4.066,165.342],[6.167,173.904],[7.721,178.492],[10.477,183.946],[13.78,187.63],[17.21,189.63],[23.014,190.35],[27.871,188.546],[30.675,186.118],[33.068,182.522],[36.461,172.712],[39.485,155.913],[42.902,123.345],[47.087,58.704],[53.724,-69.906],[58.7,-133.339],[61.421,-153.799],[61.713,-152.031],[63.725,-136.727],[66.582,-105.659],[70.487,-43.416],[76.988,79.283],[81.743,139.472],[86.357,169.7],[88.673,177.802],[90.846,182.546],[93.066,185.571],[98.823,189.024],[102.835,189.196],[107.216,187.546],[109.496,185.665],[110.847,184.004],[113.496,178.891],[115.865,170.682],[119.967,140.966],[122.092,112.154],[124.699,55.859],[128.64,-51.727],[131.277,-102.748],[136.069,-151.305],[138.177,-162.71],[141.272,-172.86],[142.088,-174.396],[143.832,-172.36],[146.088,-168.181],[152.166,-147.465],[155.898,-125.809],[165.435,-43.006],[168.107,-23.659],[172.5,-4.682],[175.035,0.366],[178.06,3.14],[179.305,3.676],[180.817,3.932],[181.888,3.908],[182.447,3.862],[183.019,3.807],[183.869,3.646],[185.53,3.242],[188.203,2.099],[192.597,-0.973],[203.759,-15.617],[212.384,-29.588],[217.045,-35.1],[219.438,-36.69],[220.545,-37.023],[220.801,-37.053],[220.778,-37.106],[221.313,-37.041],[221.885,-36.725],[222.897,-35.856],[224.909,-33.32],[228.385,-27.147],[233.975,-14.075],[252.03,32.994],[254.899,37.875],[256.804,40.167],[259.84,42.018],[260.947,42.155],[261.471,42.108],[261.785,42.06],[263.412,41.631],[266.025,40.036],[269.477,36.131],[277.787,21.225],[284.473,9.939],[290.842,3.289],[297.587,0.932],[297.587,-1.086]]}],"e":[{"i":[[0.363,-0.018],[0.703,-0.145],[2.352,-1.64],[2.401,-3.468],[2.489,-4.893],[3.488,-5.297],[1.06,-0.925],[0.44,-0.166],[0.523,-0.013],[0,0],[0.06,0],[0.054,0.039],[0.83,1.433],[0.742,1.772],[2.623,8.798],[3.188,9.922],[2.122,5.172],[1.511,2.591],[1.065,1.283],[0.732,0.609],[1.405,0.417],[2.436,-2.103],[1.709,-2.533],[3.047,-5.204],[3.827,-3.639],[1.649,-0.092],[0,0],[0.041,0.072],[0.439,1.362],[0.857,6.814],[0.637,7.207],[3.585,32.716],[1.44,8.424],[3.292,8.821],[1.38,2.267],[2.856,1.998],[0,0],[0.601,0.219],[0.554,0.132],[0.327,0.053],[0,0],[0.917,-0.139],[0.886,-0.685],[0.799,-1.296],[0.508,-1.216],[1.002,-4.544],[0.708,-4.528],[1.441,-18.679],[0.977,-19.334],[1.881,-40.954],[1.343,-20.888],[1.012,-10.432],[0.78,-5.798],[0.613,6.559],[1.067,22.283],[1.928,46.12],[1.56,23.4],[1.192,11.833],[0.824,5.996],[1.464,6.341],[1.586,3.812],[0.635,1.132],[1.28,1.409],[1.186,0.754],[0.041,-0.212],[0.649,-0.523],[0.974,-0.732],[0.785,-1.178],[0.279,-0.522],[0.231,-0.485],[0.533,-1.694],[0.66,-3.128],[1.245,-11.975],[1.344,-23.838],[2.173,-47.626],[1.685,-23.585],[1.066,-9.699],[0.103,0.8],[1.011,11.679],[1.523,23.415],[1.72,23.307],[3.179,23.38],[1.383,6.079],[1.262,3.484],[1.655,2.486],[2.411,1.494],[-0.767,-0.258],[1.452,-0.364],[1.126,-1.122],[0.636,-0.976],[0.699,-1.652],[0.837,-3.002],[1.107,-5.759],[2.571,-22.328],[2.36,-21.771],[0.946,-7.723],[1.142,9.726],[2.5,20.418],[3.657,19.914],[1.205,4.986],[2.113,5.212],[0.763,1.408],[1.596,1.677],[1.477,0.741],[1.077,0.106],[1.059,-0.219],[0.667,-0.398],[0.393,-0.404],[0.452,-0.463],[0.327,-0.424],[0.959,-2.638],[0.613,-2.494],[1.296,-9.539],[0.987,-9.31],[1.661,-17.813],[2.016,-16.865],[1.418,-7.976],[1.012,-3.537],[0.274,-0.775],[0.595,1.641],[0.968,3.711],[1.482,7.487],[2.486,14.294],[2.845,13.397],[2.321,6.552],[0.995,1.752],[1.113,1.026],[0.654,0.363],[0.142,0.007],[1.5,0.112],[0.387,-0.066],[1.185,-1.395],[0.797,-1.474],[2.018,-5.699],[1.698,-5.476],[3.361,-9.636],[2.109,-3.93],[0.54,-0.714],[0.209,-0.178],[0.036,-0.039],[-0.101,0.052],[0.096,-0.027],[0,0],[-0.03,0.013],[0,0],[0.143,0.026],[0.357,0.152],[0.731,0.678],[2.422,3.314],[2.233,3.218],[4.69,4.953],[1.453,0.945],[0,0],[0.488,0.139],[0.184,0.027],[0,0],[0.453,0.014],[0,0],[2.512,-0.036],[0,0],[0,0],[-20.097,-0.304],[-2.804,-0.053],[0,0],[0,-0.006],[0,0],[-0.137,-0.04],[-0.226,-0.099],[0,0],[-1.059,-1.117],[-4.236,-6.562],[-2.429,-3.481],[-3.387,-3.385],[-1.102,-0.721],[-0.75,-0.244],[-0.44,-0.053],[0,0],[-0.75,0.027],[0,0],[-0.28,0.119],[-0.185,0.106],[-0.16,0.145],[-0.443,0.54],[-0.635,1.145],[-1.845,4.9],[-3.622,10.792],[-2.075,5.493],[-2.777,4.915],[-0.744,0.906],[-0.286,0.244],[-0.061,-0.113],[-0.476,-1.381],[-1.292,-6.526],[-2.211,-14.323],[-2.74,-15.293],[-1.923,-7.883],[-1.412,-4.041],[-1.078,-2.136],[-0.829,-1.173],[-1.822,-1.099],[-0.547,-0.185],[-0.643,-0.052],[-0.702,0.085],[-0.64,0.475],[-0.839,1.303],[-0.663,2.173],[-0.824,4.215],[-1.143,8.55],[-1.919,17.807],[-2.237,18.38],[-1.387,9.243],[-2.279,8.708],[-0.577,1.693],[-0.91,-4.059],[-0.819,-4.803],[-2.272,-20.281],[-2.236,-20.96],[-1.356,-10.678],[-0.87,-5.451],[-0.568,-2.832],[-0.388,-1.503],[-0.709,-1.885],[-0.958,-1.534],[-1.69,-1.303],[0.119,0.555],[-1.256,1.072],[-0.317,0.624],[-0.317,0.923],[-0.59,2.873],[-0.798,5.476],[-1.298,10.95],[-2.524,22.195],[-4.161,21.601],[-0.858,3.492],[-0.447,-3.326],[-1.619,-23.116],[-1.497,-23.425],[-2.035,-23.75],[-1.545,-12.031],[-1.157,-6.189],[-0.875,-3.283],[-0.638,-1.776],[-1.405,-2.374],[-1.682,-1.517],[-1.441,-0.622],[-3.191,0.298],[-0.894,1.099],[-0.732,0.879],[-0.482,1.081],[-0.786,3.319],[-0.779,6.11],[-0.885,12.004],[-1.178,23.888],[-2.512,47.356],[-2.243,23.194],[-1.096,7.412],[-0.092,-0.661],[-0.58,-5.714],[-0.798,-11.532],[-1.134,-22.972],[-2.51,-44.834],[-2.143,-22.183],[-2.297,-11.452],[-1.082,-3.201],[-1.056,-1.993],[-1.012,-1.23],[-2.988,-0.894],[0.393,0.04],[-0.298,0.503],[-0.667,0.72],[-0.371,0.598],[-0.59,1.653],[-0.59,2.896],[-0.941,10.81],[-0.563,10.579],[-0.691,20.544],[-1.488,38.517],[-1.101,18.507],[-2.339,17.31],[-0.831,4.091],[-1.267,3.153],[-0.269,0.463],[-0.618,-0.978],[-0.676,-1.71],[-1.53,-7.935],[-1.038,-7.995],[-3.157,-29.026],[-1.035,-7.062],[-2.232,-7.101],[-1.243,-1.996],[-1.595,-0.972],[-0.489,-0.139],[-0.5,-0.052],[-0.423,0.007],[0,0],[0,0],[0,0],[-0.487,0.184],[-0.815,0.515],[-1.298,1.237],[-3.048,5.422],[-2.954,4.706],[-1.638,1.626],[-0.756,0.311],[-0.363,0.066],[0,0],[0.488,0.038],[0.244,0],[-0.179,-0.159],[-0.353,-0.402],[-0.635,-1.043],[-1.049,-2.379],[-1.679,-4.822],[-6.602,-14.957],[-1.089,-1.752],[-0.776,-0.807],[-1.387,-0.43],[-0.362,-0.034],[-0.196,0.013],[0,0],[-0.573,0.246],[-0.728,0.691],[-0.964,1.468],[-2.382,4.906],[-2.199,3.357],[-2.008,1.512],[0.077,0.161],[0,0]],"o":[[-0.363,0.035],[-1.416,0.217],[-2.352,1.64],[-2.394,3.458],[-2.523,4.852],[-0.893,1.277],[-0.513,0.437],[-0.197,0.04],[0,0],[0,0],[-0.036,-0.026],[-0.571,-0.153],[-0.869,-1.501],[-2.989,-7.142],[-2.626,-8.808],[-1.596,-4.966],[-1.06,-2.585],[-0.756,-1.296],[-0.524,-0.649],[-0.804,-0.607],[-4.405,-0.938],[-2.392,2.255],[-3.381,5.112],[-3.012,5.144],[-1.857,1.766],[0,0],[-0.036,-0.059],[-0.477,-0.794],[-1.709,-5.786],[-0.863,-6.863],[-2.548,-28.835],[-0.929,-8.173],[-1.524,-8.429],[-0.863,-2.208],[-1.364,-2.241],[0,0],[-0.339,-0.213],[-0.548,-0.191],[-0.721,-0.179],[0,0],[-1.827,-0.06],[-1.34,0.344],[-1.805,1.395],[-0.815,1.323],[-2.013,4.821],[-1,4.536],[-2.732,18.071],[-1.404,18.673],[-1.952,38.641],[-0.94,20.471],[-0.672,10.447],[-0.57,5.878],[-0.863,-6.353],[-1.928,-21.581],[-2.137,-44.605],[-0.964,-23.062],[-0.78,-11.703],[-0.597,-5.925],[-0.827,-6.017],[-0.78,-3.213],[-0.404,-0.972],[-0.619,-1.104],[-0.756,-0.753],[-0.256,-0.529],[0.476,-0.06],[-1.524,0.443],[-1.964,1.475],[-0.429,0.627],[-0.328,0.562],[-0.959,2.017],[-1.071,3.404],[-2.5,12.41],[-2.369,23.882],[-2.686,47.646],[-1.119,23.817],[-0.732,9.904],[-0.106,-0.773],[-1.477,-11.466],[-2.023,-23.386],[-1.525,-23.44],[-1.792,-23.321],[-0.833,-5.865],[-0.697,-3.063],[-0.69,-1.792],[-0.822,-1.164],[-0.827,-0.8],[-2.494,-0.185],[-2.411,0.793],[-1.149,1.144],[-1.28,1.964],[-1.387,3.28],[-1.661,5.957],[-4.256,22.924],[-2.507,22.309],[-0.852,7.861],[-1.316,-9.74],[-2.447,-20.84],[-2.536,-20.411],[-0.917,-4.993],[-1.208,-4.998],[-0.536,-1.323],[-0.774,-1.428],[-0.786,-0.827],[-0.553,-0.317],[0.452,-0.014],[-0.977,0.151],[-0.673,0.356],[-0.488,0.422],[-0.399,0.443],[-2.322,3.3],[-0.899,2.624],[-2.358,9.911],[-1.292,9.509],[-1.971,18.599],[-1.66,17.806],[-1.006,8.417],[-0.708,3.981],[-0.232,0.852],[-0.696,-1.369],[-1.25,-3.445],[-1.941,-7.439],[-2.965,-14.982],[-2.488,-14.302],[-1.459,-6.711],[-0.62,-1.66],[-0.559,-0.9],[-0.268,-0.238],[-0.459,-0.284],[-0.477,-0.052],[-0.387,0.027],[-2.946,0.846],[-1.143,1.481],[-3.09,5.871],[-1.983,5.706],[-3.393,10.943],[-1.672,4.793],[-0.518,0.965],[-0.28,0.364],[-0.053,0.053],[-0.047,0.04],[0.024,-0.027],[0,0],[-0.03,0],[0,0],[-0.107,0.027],[-0.298,-0.053],[-0.732,-0.463],[-2.934,-2.723],[-2.435,-3.332],[-4.465,-6.433],[-1.209,-1.209],[0,0],[-0.453,-0.197],[-0.22,-0.007],[0,0],[-0.167,-0.013],[0,0],[-2.804,0.052],[-20.097,0.297],[0,0],[0,0],[2.512,0.042],[0,0],[0.053,0.006],[0,0],[0.166,0.026],[0.19,0.126],[0,0],[1.083,0.754],[4.173,4.682],[2.126,3.293],[2.441,3.498],[0.863,0.827],[0.607,0.337],[0.369,0.106],[0,0],[0.334,0.026],[0,0],[0.167,-0.026],[0.363,-0.132],[0.19,-0.131],[0.667,-0.516],[0.911,-1.111],[2.506,-4.521],[3.614,-9.779],[1.809,-5.388],[2.066,-5.468],[0.684,-1.21],[0.31,-0.41],[0.065,0.105],[0.541,0.992],[1.875,5.7],[2.541,13.139],[2.215,14.349],[1.369,7.643],[0.964,3.953],[0.714,2.042],[0.548,1.085],[0.785,1.111],[0.518,0.257],[0.619,0.164],[2.357,-0.204],[0.149,0],[2.56,-1.898],[1.328,-2.48],[1.316,-4.312],[1.643,-8.403],[2.286,-17.099],[1.917,-17.792],[1.119,-9.191],[1.417,-9.205],[0.488,-1.864],[1.215,3.505],[1.03,4.595],[3.28,19.228],[2.274,20.299],[1.119,10.488],[0.679,5.349],[0.435,2.723],[0.285,1.422],[0.387,1.501],[0.393,0.964],[0.607,0.826],[0.352,1.521],[4.577,-1.771],[0.648,-0.867],[0.631,-1.242],[1.185,-3.446],[1.16,-5.653],[1.596,-10.949],[2.476,-21.812],[2.673,-22.072],[0.721,-3.636],[0.553,3.214],[2.881,22.224],[1.464,23.228],[1.5,23.48],[1.018,11.881],[0.774,6.03],[0.577,3.088],[0.44,1.652],[0.648,1.805],[0.673,1.137],[0.827,0.746],[1.792,0.607],[-1.012,0.376],[1.362,-0.978],[1.173,-1.534],[1.977,-4.429],[1.393,-6.474],[1.5,-12.179],[1.769,-23.994],[2.356,-47.786],[1.304,-23.651],[0.769,-7.651],[0.106,0.654],[0.779,5.6],[1.161,11.433],[1.596,23.069],[2.269,45.947],[1.256,22.435],[1.138,11.135],[0.62,2.902],[0.536,1.586],[0.512,0.965],[1.161,1.29],[0.852,0.488],[0.72,0.066],[1.06,-0.746],[0.523,-0.635],[1.393,-2.249],[1.118,-3.293],[2.196,-11.438],[0.892,-10.771],[1.125,-21.152],[1.382,-41.08],[0.744,-19.26],[1.138,-18.474],[0.608,-4.311],[0.827,-4.073],[0.269,-0.661],[0.487,0.457],[0.814,1.289],[2.756,6.976],[1.5,7.994],[4.161,32.048],[0.791,7.273],[1.084,7.074],[0.648,1.799],[0.697,0.991],[0.405,0.219],[0.488,0.139],[1.196,0.04],[0,0],[0,0],[0,0],[0.561,-0.139],[0.917,-0.377],[1.697,-0.958],[5.012,-5.098],[2.988,-5.441],[1.465,-2.334],[0.815,-0.721],[0.393,-0.191],[0,0],[-0.035,-0.02],[0.304,0.019],[0.096,0.047],[0.314,0.251],[0.685,0.78],[1.292,2.121],[2.107,4.779],[6.745,19.368],[0.869,1.857],[0.572,0.867],[0.756,0.786],[0.339,0.106],[0.536,-0.04],[0,0],[0.328,0],[1.106,-0.475],[1.44,-1.369],[3.638,-5.951],[2.315,-4.932],[2.196,-3.353],[4.084,-3.075],[0,0],[0.022,0.006]],"v":[[297.074,-1.05],[295.467,-1.02],[289.61,1.558],[282.425,9.32],[275.155,21.963],[266.619,37.785],[263.703,41.243],[262.144,42.249],[261.376,42.452],[261.06,42.493],[260.941,42.506],[260.816,42.467],[258.256,39.511],[255.84,34.553],[247.762,10.339],[239.309,-17.842],[233.88,-33.07],[230.171,-40.865],[227.51,-44.753],[225.641,-46.638],[222.76,-48.192],[212.735,-44.701],[206.794,-37.4],[197.526,-21.736],[187.501,-7.686],[181.863,-4.618],[181.805,-4.618],[181.68,-4.809],[180.251,-8.313],[176.649,-27.741],[174.465,-48.872],[166.743,-141.387],[163.291,-173.227],[156.85,-199],[153.678,-205.724],[147.832,-212.376],[146.695,-213.063],[145.302,-213.719],[143.629,-214.22],[142.641,-214.393],[141.908,-214.478],[139.272,-214.274],[135.879,-212.626],[132.265,-208.495],[130.337,-204.719],[126.211,-190.841],[123.723,-177.273],[117.943,-115.257],[114.406,-58.248],[109.103,61.265],[105.799,123.357],[103.369,154.725],[101.382,186.214],[99.221,152.867],[94.988,86.912],[89.441,-49.302],[85.768,-118.979],[82.917,-168.149],[80.845,-186.009],[77.637,-204.384],[74.499,-214.606],[72.999,-217.714],[70.267,-221.509],[67.606,-223.724],[62.992,-225.462],[58.516,-225.172],[54.688,-223.287],[50.831,-219.161],[49.772,-217.423],[48.968,-215.842],[46.825,-210.334],[44.372,-200.654],[39.312,-164.387],[34.092,-78.99],[27.395,64.027],[23.395,135.213],[20.78,178.572],[20.454,176.225],[16.817,127.516],[11.68,57.211],[6.876,-12.909],[0.131,-89.723],[-2.964,-107.542],[-5.673,-117.169],[-8.679,-123.245],[-13.037,-127.484],[-17.198,-128.912],[-21.674,-128.449],[-26.793,-125.236],[-29.359,-122.063],[-32.157,-116.726],[-35.336,-107.429],[-39.318,-89.948],[-48.729,-15.277],[-55.801,50.89],[-58.492,70.804],[-62.141,45.038],[-69.386,-16.896],[-78.13,-84.307],[-81.22,-99.258],[-85.762,-114.458],[-87.631,-118.545],[-90.816,-123.16],[-94.132,-125.666],[-97.173,-126.565],[-99.572,-126.459],[-102.132,-125.619],[-104.097,-124.356],[-105.507,-123.021],[-106.501,-121.771],[-110.627,-113.209],[-112.805,-105.591],[-117.913,-76.572],[-121.264,-51.837],[-126.533,13.208],[-131.825,65.291],[-135.337,86.521],[-137.861,97.96],[-138.629,100.414],[-140.593,95.805],[-143.891,84.98],[-148.921,65.971],[-156.856,21.949],[-164.559,-19.614],[-169.809,-39.416],[-172.072,-44.475],[-174.244,-47.292],[-175.363,-48.118],[-176.869,-48.733],[-178.066,-48.872],[-179.239,-48.733],[-184.668,-44.726],[-187.477,-40.303],[-194.65,-22.92],[-200.103,-6.132],[-209.896,24.905],[-215.354,38.334],[-216.973,40.919],[-217.73,41.719],[-217.855,41.811],[-217.837,41.825],[-217.718,41.839],[-217.908,41.865],[-218.021,41.851],[-218.2,41.839],[-218.64,41.706],[-219.67,41.23],[-221.879,39.497],[-229.849,30.016],[-236.79,20.125],[-250.017,2.682],[-253.917,-0.624],[-255.077,-1.266],[-256.548,-1.768],[-257.107,-1.801],[-257.375,-1.835],[-257.822,-1.867],[-258.881,-1.854],[-266.852,-1.544],[-297.664,-1.08],[-297.664,0.938],[-266.846,1.403],[-258.875,1.697],[-257.875,1.716],[-257.738,1.736],[-257.47,1.776],[-256.958,1.862],[-256.375,2.139],[-255.583,2.609],[-252.381,5.512],[-240.041,22.868],[-233.296,33.097],[-224.956,43.597],[-222.045,45.957],[-220.164,46.923],[-219.063,47.26],[-218.444,47.339],[-217.551,47.392],[-217.152,47.339],[-216.259,47.081],[-215.515,46.717],[-214.944,46.328],[-213.283,44.714],[-211.027,41.342],[-204.854,27.185],[-194.305,-3.772],[-188.567,-20.156],[-181.542,-36.19],[-179.376,-39.463],[-178.441,-40.428],[-178.256,-40.104],[-176.715,-36.369],[-172.202,-17.657],[-165.339,23.682],[-158.172,68.161],[-153.415,87.97],[-150.004,99.951],[-147.445,106.185],[-145.468,109.532],[-141.736,113.056],[-140.141,113.744],[-138.224,114.053],[-136.48,113.836],[-134.307,112.87],[-130.575,108.52],[-127.866,101.716],[-124.8,89.007],[-120.764,67.05],[-114.675,14.695],[-108.638,-50.039],[-104.936,-74.244],[-99.745,-101.493],[-98.144,-106.881],[-94.995,-95.303],[-92.233,-81.167],[-84.28,-14.708],[-77.696,47.207],[-74.065,75.466],[-71.785,91.62],[-70.296,99.923],[-69.314,104.287],[-67.802,109.207],[-66.082,112.705],[-63.344,115.673],[-56.194,117.147],[-51.003,113.531],[-49.628,111.323],[-48.343,108.276],[-45.967,99.171],[-43.146,82.573],[-38.937,53.243],[-31.425,-12.783],[-21.847,-85.742],[-19.489,-96.468],[-17.995,-86.635],[-11.846,-11.256],[-7.435,58.732],[-2.393,129.567],[1.274,179.28],[4.066,197.541],[6.167,207.051],[7.721,212.148],[10.477,218.205],[13.78,222.297],[17.21,224.519],[23.014,225.318],[27.871,223.315],[30.675,220.618],[33.068,216.623],[36.461,205.727],[39.485,187.068],[42.902,137.004],[47.087,65.205],[53.724,-77.647],[58.7,-161.993],[61.421,-184.719],[61.713,-182.756],[63.725,-165.757],[66.582,-117.36],[70.487,-48.224],[76.988,88.063],[81.743,154.917],[86.357,202.382],[88.673,211.381],[90.846,216.65],[93.066,220.01],[98.823,223.845],[102.835,224.036],[107.216,222.204],[109.496,220.115],[110.847,218.27],[113.496,212.59],[115.865,203.472],[119.967,156.577],[122.092,124.574],[124.699,62.044],[128.64,-57.455],[131.277,-114.126],[136.069,-175.005],[138.177,-187.673],[141.272,-198.947],[142.088,-200.653],[143.832,-198.391],[146.088,-193.75],[152.166,-170.739],[155.898,-139.741],[165.435,-47.768],[168.107,-26.279],[172.5,-5.2],[175.035,0.407],[178.06,3.488],[179.305,4.083],[180.817,4.367],[181.888,4.341],[182.447,4.289],[183.019,4.229],[183.869,4.049],[185.53,3.601],[188.203,2.331],[192.597,-1.081],[203.759,-17.346],[212.384,-32.864],[217.045,-38.987],[219.438,-40.753],[220.545,-41.123],[220.801,-41.156],[220.778,-41.215],[221.313,-41.143],[221.885,-40.792],[222.897,-39.826],[224.909,-37.009],[228.385,-30.153],[233.975,-15.634],[252.03,36.648],[254.899,42.07],[256.804,44.615],[259.84,46.671],[260.947,46.824],[261.471,46.771],[261.785,46.717],[263.412,46.241],[266.025,44.47],[269.477,40.132],[277.787,23.575],[284.473,11.039],[290.842,3.654],[297.587,0.932],[297.587,-1.086]]}]},{"i":{"x":0.833,"y":0.833},"o":{"x":0.167,"y":0},"n":"0p833_0p833_0p167_0","t":25,"s":[{"i":[[0.363,-0.018],[0.703,-0.145],[2.352,-1.64],[2.401,-3.468],[2.489,-4.893],[3.488,-5.297],[1.06,-0.925],[0.44,-0.166],[0.523,-0.013],[0,0],[0.06,0],[0.054,0.039],[0.83,1.433],[0.742,1.772],[2.623,8.798],[3.188,9.922],[2.122,5.172],[1.511,2.591],[1.065,1.283],[0.732,0.609],[1.405,0.417],[2.436,-2.103],[1.709,-2.533],[3.047,-5.204],[3.827,-3.639],[1.649,-0.092],[0,0],[0.041,0.072],[0.439,1.362],[0.857,6.814],[0.637,7.207],[3.585,32.716],[1.44,8.424],[3.292,8.821],[1.38,2.267],[2.856,1.998],[0,0],[0.601,0.219],[0.554,0.132],[0.327,0.053],[0,0],[0.917,-0.139],[0.886,-0.685],[0.799,-1.296],[0.508,-1.216],[1.002,-4.544],[0.708,-4.528],[1.441,-18.679],[0.977,-19.334],[1.881,-40.954],[1.343,-20.888],[1.012,-10.432],[0.78,-5.798],[0.613,6.559],[1.067,22.283],[1.928,46.12],[1.56,23.4],[1.192,11.833],[0.824,5.996],[1.464,6.341],[1.586,3.812],[0.635,1.132],[1.28,1.409],[1.186,0.754],[0.041,-0.212],[0.649,-0.523],[0.974,-0.732],[0.785,-1.178],[0.279,-0.522],[0.231,-0.485],[0.533,-1.694],[0.66,-3.128],[1.245,-11.975],[1.344,-23.838],[2.173,-47.626],[1.685,-23.585],[1.066,-9.699],[0.103,0.8],[1.011,11.679],[1.523,23.415],[1.72,23.307],[3.179,23.38],[1.383,6.079],[1.262,3.484],[1.655,2.486],[2.411,1.494],[-0.767,-0.258],[1.452,-0.364],[1.126,-1.122],[0.636,-0.976],[0.699,-1.652],[0.837,-3.002],[1.107,-5.759],[2.571,-22.328],[2.36,-21.771],[0.946,-7.723],[1.142,9.726],[2.5,20.418],[3.657,19.914],[1.205,4.986],[2.113,5.212],[0.763,1.408],[1.596,1.677],[1.477,0.741],[1.077,0.106],[1.059,-0.219],[0.667,-0.398],[0.393,-0.404],[0.452,-0.463],[0.327,-0.424],[0.959,-2.638],[0.613,-2.494],[1.296,-9.539],[0.987,-9.31],[1.661,-17.813],[2.016,-16.865],[1.418,-7.976],[1.012,-3.537],[0.274,-0.775],[0.595,1.641],[0.968,3.711],[1.482,7.487],[2.486,14.294],[2.845,13.397],[2.321,6.552],[0.995,1.752],[1.113,1.026],[0.654,0.363],[0.142,0.007],[1.5,0.112],[0.387,-0.066],[1.185,-1.395],[0.797,-1.474],[2.018,-5.699],[1.698,-5.476],[3.361,-9.636],[2.109,-3.93],[0.54,-0.714],[0.209,-0.178],[0.036,-0.039],[-0.101,0.052],[0.096,-0.027],[0,0],[-0.03,0.013],[0,0],[0.143,0.026],[0.357,0.152],[0.731,0.678],[2.422,3.314],[2.233,3.218],[4.69,4.953],[1.453,0.945],[0,0],[0.488,0.139],[0.184,0.027],[0,0],[0.453,0.014],[0,0],[2.512,-0.036],[0,0],[0,0],[-20.097,-0.304],[-2.804,-0.053],[0,0],[0,-0.006],[0,0],[-0.137,-0.04],[-0.226,-0.099],[0,0],[-1.059,-1.117],[-4.236,-6.562],[-2.429,-3.481],[-3.387,-3.385],[-1.102,-0.721],[-0.75,-0.244],[-0.44,-0.053],[0,0],[-0.75,0.027],[0,0],[-0.28,0.119],[-0.185,0.106],[-0.16,0.145],[-0.443,0.54],[-0.635,1.145],[-1.845,4.9],[-3.622,10.792],[-2.075,5.493],[-2.777,4.915],[-0.744,0.906],[-0.286,0.244],[-0.061,-0.113],[-0.476,-1.381],[-1.292,-6.526],[-2.211,-14.323],[-2.74,-15.293],[-1.923,-7.883],[-1.412,-4.041],[-1.078,-2.136],[-0.829,-1.173],[-1.822,-1.099],[-0.547,-0.185],[-0.643,-0.052],[-0.702,0.085],[-0.64,0.475],[-0.839,1.303],[-0.663,2.173],[-0.824,4.215],[-1.143,8.55],[-1.919,17.807],[-2.237,18.38],[-1.387,9.243],[-2.279,8.708],[-0.577,1.693],[-0.91,-4.059],[-0.819,-4.803],[-2.272,-20.281],[-2.236,-20.96],[-1.356,-10.678],[-0.87,-5.451],[-0.568,-2.832],[-0.388,-1.503],[-0.709,-1.885],[-0.958,-1.534],[-1.69,-1.303],[0.119,0.555],[-1.256,1.072],[-0.317,0.624],[-0.317,0.923],[-0.59,2.873],[-0.798,5.476],[-1.298,10.95],[-2.524,22.195],[-4.161,21.601],[-0.858,3.492],[-0.447,-3.326],[-1.619,-23.116],[-1.497,-23.425],[-2.035,-23.75],[-1.545,-12.031],[-1.157,-6.189],[-0.875,-3.283],[-0.638,-1.776],[-1.405,-2.374],[-1.682,-1.517],[-1.441,-0.622],[-3.191,0.298],[-0.894,1.099],[-0.732,0.879],[-0.482,1.081],[-0.786,3.319],[-0.779,6.11],[-0.885,12.004],[-1.178,23.888],[-2.512,47.356],[-2.243,23.194],[-1.096,7.412],[-0.092,-0.661],[-0.58,-5.714],[-0.798,-11.532],[-1.134,-22.972],[-2.51,-44.834],[-2.143,-22.183],[-2.297,-11.452],[-1.082,-3.201],[-1.056,-1.993],[-1.012,-1.23],[-2.988,-0.894],[0.393,0.04],[-0.298,0.503],[-0.667,0.72],[-0.371,0.598],[-0.59,1.653],[-0.59,2.896],[-0.941,10.81],[-0.563,10.579],[-0.691,20.544],[-1.488,38.517],[-1.101,18.507],[-2.339,17.31],[-0.831,4.091],[-1.267,3.153],[-0.269,0.463],[-0.618,-0.978],[-0.676,-1.71],[-1.53,-7.935],[-1.038,-7.995],[-3.157,-29.026],[-1.035,-7.062],[-2.232,-7.101],[-1.243,-1.996],[-1.595,-0.972],[-0.489,-0.139],[-0.5,-0.052],[-0.423,0.007],[0,0],[0,0],[0,0],[-0.487,0.184],[-0.815,0.515],[-1.298,1.237],[-3.048,5.422],[-2.954,4.706],[-1.638,1.626],[-0.756,0.311],[-0.363,0.066],[0,0],[0.488,0.038],[0.244,0],[-0.179,-0.159],[-0.353,-0.402],[-0.635,-1.043],[-1.049,-2.379],[-1.679,-4.822],[-6.602,-14.957],[-1.089,-1.752],[-0.776,-0.807],[-1.387,-0.43],[-0.362,-0.034],[-0.196,0.013],[0,0],[-0.573,0.246],[-0.728,0.691],[-0.964,1.468],[-2.382,4.906],[-2.199,3.357],[-2.008,1.512],[0.077,0.161],[0,0]],"o":[[-0.363,0.035],[-1.416,0.217],[-2.352,1.64],[-2.394,3.458],[-2.523,4.852],[-0.893,1.277],[-0.513,0.437],[-0.197,0.04],[0,0],[0,0],[-0.036,-0.026],[-0.571,-0.153],[-0.869,-1.501],[-2.989,-7.142],[-2.626,-8.808],[-1.596,-4.966],[-1.06,-2.585],[-0.756,-1.296],[-0.524,-0.649],[-0.804,-0.607],[-4.405,-0.938],[-2.392,2.255],[-3.381,5.112],[-3.012,5.144],[-1.857,1.766],[0,0],[-0.036,-0.059],[-0.477,-0.794],[-1.709,-5.786],[-0.863,-6.863],[-2.548,-28.835],[-0.929,-8.173],[-1.524,-8.429],[-0.863,-2.208],[-1.364,-2.241],[0,0],[-0.339,-0.213],[-0.548,-0.191],[-0.721,-0.179],[0,0],[-1.827,-0.06],[-1.34,0.344],[-1.805,1.395],[-0.815,1.323],[-2.013,4.821],[-1,4.536],[-2.732,18.071],[-1.404,18.673],[-1.952,38.641],[-0.94,20.471],[-0.672,10.447],[-0.57,5.878],[-0.863,-6.353],[-1.928,-21.581],[-2.137,-44.605],[-0.964,-23.062],[-0.78,-11.703],[-0.597,-5.925],[-0.827,-6.017],[-0.78,-3.213],[-0.404,-0.972],[-0.619,-1.104],[-0.756,-0.753],[-0.256,-0.529],[0.476,-0.06],[-1.524,0.443],[-1.964,1.475],[-0.429,0.627],[-0.328,0.562],[-0.959,2.017],[-1.071,3.404],[-2.5,12.41],[-2.369,23.882],[-2.686,47.646],[-1.119,23.817],[-0.732,9.904],[-0.106,-0.773],[-1.477,-11.466],[-2.023,-23.386],[-1.525,-23.44],[-1.792,-23.321],[-0.833,-5.865],[-0.697,-3.063],[-0.69,-1.792],[-0.822,-1.164],[-0.827,-0.8],[-2.494,-0.185],[-2.411,0.793],[-1.149,1.144],[-1.28,1.964],[-1.387,3.28],[-1.661,5.957],[-4.256,22.924],[-2.507,22.309],[-0.852,7.861],[-1.316,-9.74],[-2.447,-20.84],[-2.536,-20.411],[-0.917,-4.993],[-1.208,-4.998],[-0.536,-1.323],[-0.774,-1.428],[-0.786,-0.827],[-0.553,-0.317],[0.452,-0.014],[-0.977,0.151],[-0.673,0.356],[-0.488,0.422],[-0.399,0.443],[-2.322,3.3],[-0.899,2.624],[-2.358,9.911],[-1.292,9.509],[-1.971,18.599],[-1.66,17.806],[-1.006,8.417],[-0.708,3.981],[-0.232,0.852],[-0.696,-1.369],[-1.25,-3.445],[-1.941,-7.439],[-2.965,-14.982],[-2.488,-14.302],[-1.459,-6.711],[-0.62,-1.66],[-0.559,-0.9],[-0.268,-0.238],[-0.459,-0.284],[-0.477,-0.052],[-0.387,0.027],[-2.946,0.846],[-1.143,1.481],[-3.09,5.871],[-1.983,5.706],[-3.393,10.943],[-1.672,4.793],[-0.518,0.965],[-0.28,0.364],[-0.053,0.053],[-0.047,0.04],[0.024,-0.027],[0,0],[-0.03,0],[0,0],[-0.107,0.027],[-0.298,-0.053],[-0.732,-0.463],[-2.934,-2.723],[-2.435,-3.332],[-4.465,-6.433],[-1.209,-1.209],[0,0],[-0.453,-0.197],[-0.22,-0.007],[0,0],[-0.167,-0.013],[0,0],[-2.804,0.052],[-20.097,0.297],[0,0],[0,0],[2.512,0.042],[0,0],[0.053,0.006],[0,0],[0.166,0.026],[0.19,0.126],[0,0],[1.083,0.754],[4.173,4.682],[2.126,3.293],[2.441,3.498],[0.863,0.827],[0.607,0.337],[0.369,0.106],[0,0],[0.334,0.026],[0,0],[0.167,-0.026],[0.363,-0.132],[0.19,-0.131],[0.667,-0.516],[0.911,-1.111],[2.506,-4.521],[3.614,-9.779],[1.809,-5.388],[2.066,-5.468],[0.684,-1.21],[0.31,-0.41],[0.065,0.105],[0.541,0.992],[1.875,5.7],[2.541,13.139],[2.215,14.349],[1.369,7.643],[0.964,3.953],[0.714,2.042],[0.548,1.085],[0.785,1.111],[0.518,0.257],[0.619,0.164],[2.357,-0.204],[0.149,0],[2.56,-1.898],[1.328,-2.48],[1.316,-4.312],[1.643,-8.403],[2.286,-17.099],[1.917,-17.792],[1.119,-9.191],[1.417,-9.205],[0.488,-1.864],[1.215,3.505],[1.03,4.595],[3.28,19.228],[2.274,20.299],[1.119,10.488],[0.679,5.349],[0.435,2.723],[0.285,1.422],[0.387,1.501],[0.393,0.964],[0.607,0.826],[0.352,1.521],[4.577,-1.771],[0.648,-0.867],[0.631,-1.242],[1.185,-3.446],[1.16,-5.653],[1.596,-10.949],[2.476,-21.812],[2.673,-22.072],[0.721,-3.636],[0.553,3.214],[2.881,22.224],[1.464,23.228],[1.5,23.48],[1.018,11.881],[0.774,6.03],[0.577,3.088],[0.44,1.652],[0.648,1.805],[0.673,1.137],[0.827,0.746],[1.792,0.607],[-1.012,0.376],[1.362,-0.978],[1.173,-1.534],[1.977,-4.429],[1.393,-6.474],[1.5,-12.179],[1.769,-23.994],[2.356,-47.786],[1.304,-23.651],[0.769,-7.651],[0.106,0.654],[0.779,5.6],[1.161,11.433],[1.596,23.069],[2.269,45.947],[1.256,22.435],[1.138,11.135],[0.62,2.902],[0.536,1.586],[0.512,0.965],[1.161,1.29],[0.852,0.488],[0.72,0.066],[1.06,-0.746],[0.523,-0.635],[1.393,-2.249],[1.118,-3.293],[2.196,-11.438],[0.892,-10.771],[1.125,-21.152],[1.382,-41.08],[0.744,-19.26],[1.138,-18.474],[0.608,-4.311],[0.827,-4.073],[0.269,-0.661],[0.487,0.457],[0.814,1.289],[2.756,6.976],[1.5,7.994],[4.161,32.048],[0.791,7.273],[1.084,7.074],[0.648,1.799],[0.697,0.991],[0.405,0.219],[0.488,0.139],[1.196,0.04],[0,0],[0,0],[0,0],[0.561,-0.139],[0.917,-0.377],[1.697,-0.958],[5.012,-5.098],[2.988,-5.441],[1.465,-2.334],[0.815,-0.721],[0.393,-0.191],[0,0],[-0.035,-0.02],[0.304,0.019],[0.096,0.047],[0.314,0.251],[0.685,0.78],[1.292,2.121],[2.107,4.779],[6.745,19.368],[0.869,1.857],[0.572,0.867],[0.756,0.786],[0.339,0.106],[0.536,-0.04],[0,0],[0.328,0],[1.106,-0.475],[1.44,-1.369],[3.638,-5.951],[2.315,-4.932],[2.196,-3.353],[4.084,-3.075],[0,0],[0.022,0.006]],"v":[[297.074,-1.05],[295.467,-1.02],[289.61,1.558],[282.425,9.32],[275.155,21.963],[266.619,37.785],[263.703,41.243],[262.144,42.249],[261.376,42.452],[261.06,42.493],[260.941,42.506],[260.816,42.467],[258.256,39.511],[255.84,34.553],[247.762,10.339],[239.309,-17.842],[233.88,-33.07],[230.171,-40.865],[227.51,-44.753],[225.641,-46.638],[222.76,-48.192],[212.735,-44.701],[206.794,-37.4],[197.526,-21.736],[187.501,-7.686],[181.863,-4.618],[181.805,-4.618],[181.68,-4.809],[180.251,-8.313],[176.649,-27.741],[174.465,-48.872],[166.743,-141.387],[163.291,-173.227],[156.85,-199],[153.678,-205.724],[147.832,-212.376],[146.695,-213.063],[145.302,-213.719],[143.629,-214.22],[142.641,-214.393],[141.908,-214.478],[139.272,-214.274],[135.879,-212.626],[132.265,-208.495],[130.337,-204.719],[126.211,-190.841],[123.723,-177.273],[117.943,-115.257],[114.406,-58.248],[109.103,61.265],[105.799,123.357],[103.369,154.725],[101.382,186.214],[99.221,152.867],[94.988,86.912],[89.441,-49.302],[85.768,-118.979],[82.917,-168.149],[80.845,-186.009],[77.637,-204.384],[74.499,-214.606],[72.999,-217.714],[70.267,-221.509],[67.606,-223.724],[62.992,-225.462],[58.516,-225.172],[54.688,-223.287],[50.831,-219.161],[49.772,-217.423],[48.968,-215.842],[46.825,-210.334],[44.372,-200.654],[39.312,-164.387],[34.092,-78.99],[27.395,64.027],[23.395,135.213],[20.78,178.572],[20.454,176.225],[16.817,127.516],[11.68,57.211],[6.876,-12.909],[0.131,-89.723],[-2.964,-107.542],[-5.673,-117.169],[-8.679,-123.245],[-13.037,-127.484],[-17.198,-128.912],[-21.674,-128.449],[-26.793,-125.236],[-29.359,-122.063],[-32.157,-116.726],[-35.336,-107.429],[-39.318,-89.948],[-48.729,-15.277],[-55.801,50.89],[-58.492,70.804],[-62.141,45.038],[-69.386,-16.896],[-78.13,-84.307],[-81.22,-99.258],[-85.762,-114.458],[-87.631,-118.545],[-90.816,-123.16],[-94.132,-125.666],[-97.173,-126.565],[-99.572,-126.459],[-102.132,-125.619],[-104.097,-124.356],[-105.507,-123.021],[-106.501,-121.771],[-110.627,-113.209],[-112.805,-105.591],[-117.913,-76.572],[-121.264,-51.837],[-126.533,13.208],[-131.825,65.291],[-135.337,86.521],[-137.861,97.96],[-138.629,100.414],[-140.593,95.805],[-143.891,84.98],[-148.921,65.971],[-156.856,21.949],[-164.559,-19.614],[-169.809,-39.416],[-172.072,-44.475],[-174.244,-47.292],[-175.363,-48.118],[-176.869,-48.733],[-178.066,-48.872],[-179.239,-48.733],[-184.668,-44.726],[-187.477,-40.303],[-194.65,-22.92],[-200.103,-6.132],[-209.896,24.905],[-215.354,38.334],[-216.973,40.919],[-217.73,41.719],[-217.855,41.811],[-217.837,41.825],[-217.718,41.839],[-217.908,41.865],[-218.021,41.851],[-218.2,41.839],[-218.64,41.706],[-219.67,41.23],[-221.879,39.497],[-229.849,30.016],[-236.79,20.125],[-250.017,2.682],[-253.917,-0.624],[-255.077,-1.266],[-256.548,-1.768],[-257.107,-1.801],[-257.375,-1.835],[-257.822,-1.867],[-258.881,-1.854],[-266.852,-1.544],[-297.664,-1.08],[-297.664,0.938],[-266.846,1.403],[-258.875,1.697],[-257.875,1.716],[-257.738,1.736],[-257.47,1.776],[-256.958,1.862],[-256.375,2.139],[-255.583,2.609],[-252.381,5.512],[-240.041,22.868],[-233.296,33.097],[-224.956,43.597],[-222.045,45.957],[-220.164,46.923],[-219.063,47.26],[-218.444,47.339],[-217.551,47.392],[-217.152,47.339],[-216.259,47.081],[-215.515,46.717],[-214.944,46.328],[-213.283,44.714],[-211.027,41.342],[-204.854,27.185],[-194.305,-3.772],[-188.567,-20.156],[-181.542,-36.19],[-179.376,-39.463],[-178.441,-40.428],[-178.256,-40.104],[-176.715,-36.369],[-172.202,-17.657],[-165.339,23.682],[-158.172,68.161],[-153.415,87.97],[-150.004,99.951],[-147.445,106.185],[-145.468,109.532],[-141.736,113.056],[-140.141,113.744],[-138.224,114.053],[-136.48,113.836],[-134.307,112.87],[-130.575,108.52],[-127.866,101.716],[-124.8,89.007],[-120.764,67.05],[-114.675,14.695],[-108.638,-50.039],[-104.936,-74.244],[-99.745,-101.493],[-98.144,-106.881],[-94.995,-95.303],[-92.233,-81.167],[-84.28,-14.708],[-77.696,47.207],[-74.065,75.466],[-71.785,91.62],[-70.296,99.923],[-69.314,104.287],[-67.802,109.207],[-66.082,112.705],[-63.344,115.673],[-56.194,117.147],[-51.003,113.531],[-49.628,111.323],[-48.343,108.276],[-45.967,99.171],[-43.146,82.573],[-38.937,53.243],[-31.425,-12.783],[-21.847,-85.742],[-19.489,-96.468],[-17.995,-86.635],[-11.846,-11.256],[-7.435,58.732],[-2.393,129.567],[1.274,179.28],[4.066,197.541],[6.167,207.051],[7.721,212.148],[10.477,218.205],[13.78,222.297],[17.21,224.519],[23.014,225.318],[27.871,223.315],[30.675,220.618],[33.068,216.623],[36.461,205.727],[39.485,187.068],[42.902,137.004],[47.087,65.205],[53.724,-77.647],[58.7,-161.993],[61.421,-184.719],[61.713,-182.756],[63.725,-165.757],[66.582,-117.36],[70.487,-48.224],[76.988,88.063],[81.743,154.917],[86.357,202.382],[88.673,211.381],[90.846,216.65],[93.066,220.01],[98.823,223.845],[102.835,224.036],[107.216,222.204],[109.496,220.115],[110.847,218.27],[113.496,212.59],[115.865,203.472],[119.967,156.577],[122.092,124.574],[124.699,62.044],[128.64,-57.455],[131.277,-114.126],[136.069,-175.005],[138.177,-187.673],[141.272,-198.947],[142.088,-200.653],[143.832,-198.391],[146.088,-193.75],[152.166,-170.739],[155.898,-139.741],[165.435,-47.768],[168.107,-26.279],[172.5,-5.2],[175.035,0.407],[178.06,3.488],[179.305,4.083],[180.817,4.367],[181.888,4.341],[182.447,4.289],[183.019,4.229],[183.869,4.049],[185.53,3.601],[188.203,2.331],[192.597,-1.081],[203.759,-17.346],[212.384,-32.864],[217.045,-38.987],[219.438,-40.753],[220.545,-41.123],[220.801,-41.156],[220.778,-41.215],[221.313,-41.143],[221.885,-40.792],[222.897,-39.826],[224.909,-37.009],[228.385,-30.153],[233.975,-15.634],[252.03,36.648],[254.899,42.07],[256.804,44.615],[259.84,46.671],[260.947,46.824],[261.471,46.771],[261.785,46.717],[263.412,46.241],[266.025,44.47],[269.477,40.132],[277.787,23.575],[284.473,11.039],[290.842,3.654],[297.587,0.932],[297.587,-1.086]]}],"e":[{"i":[[0,0],[0,0],[0,0],[0,0],[0,0],[0,0],[0,0],[0,0],[0,0],[0,0],[0,0],[0,0],[0,0],[0,0],[0,0],[0,0],[0,0],[0,0],[0,0],[0,0],[0,0],[0,0],[0,0],[0,0],[0,0],[0,0],[0,0],[0,0],[0,0],[0,0],[0,0],[0,0],[0,0],[0,0],[0,0],[0,0],[0,0],[0,0],[0,0],[0,0],[0,0],[0,0],[0,0],[0,0],[0,0],[0,0],[0,0],[0,0],[0,0],[0,0],[0,0],[0,0],[0,0],[0,0],[0,0],[0,0],[0,0],[0,0],[0,0],[0,0],[0,0],[0,0],[0,0],[0,0],[0,0],[0,0],[0,0],[0,0],[0,0],[0,0],[0,0],[0,0],[0,0],[0,0],[0,0],[0,0],[0,0],[0,0],[0,0],[0,0],[0,0],[0,0],[0,0],[0,0],[0,0],[0,0],[0,0],[0,0],[0,0],[0,0],[0,0],[0,0],[0,0],[0,0],[0,0],[0,0],[0,0],[0,0],[0,0],[0,0],[0,0],[0,0],[0,0],[0,0],[0,0],[0,0],[0,0],[0,0],[0,0],[0,0],[0,0],[0,0],[0,0],[0,0],[0,0],[0,0],[0,0],[0,0],[0,0],[0,0],[0,0],[0,0],[0,0],[0,0],[0,0],[0,0],[0,0],[0,0],[0,0],[0,0],[0,0],[0,0],[0,0],[0,0],[0,0],[0,0],[0,0],[0,0],[0,0],[0,0],[0,0],[0,0],[0,0],[0,0],[0,0],[0,0],[0,0],[0,0],[0,0],[0,0],[0,0],[0,0],[0,0],[0,0],[0,0],[0,0],[0,0],[0,0],[0,0],[0,0],[0,0],[0,0],[0,0],[0,0],[0,0],[0,0],[0,0],[0,0],[0,0],[0,0],[0,0],[0,0],[0,0],[0,0],[0,0],[0,0],[0,0],[0,0],[0,0],[0,0],[0,0],[0,0],[0,0],[0,0],[0,0],[0,0],[0,0],[0,0],[0,0],[0,0],[0,0],[0,0],[0,0],[0,0],[0,0],[0,0],[0,0],[0,0],[0,0],[0,0],[0,0],[0,0],[0,0],[0,0],[0,0],[0,0],[0,0],[0,0],[0,0],[0,0],[0,0],[0,0],[0,0],[0,0],[0,0],[0,0],[0,0],[0,0],[0,0],[0,0],[0,0],[0,0],[0,0],[0,0],[0,0],[0,0],[0,0],[0,0],[0,0],[0,0],[0,0],[0,0],[0,0],[0,0],[0,0],[0,0],[0,0],[0,0],[0,0],[0,0],[0,0],[0,0],[0,0],[0,0],[0,0],[0,0],[0,0],[0,0],[0,0],[0,0],[0,0],[0,0],[0,0],[0,0],[0,0],[0,0],[0,0],[0,0],[0,0],[0,0],[0,0],[0,0],[0,0],[0,0],[0,0],[0,0],[0,0],[0,0],[0,0],[0,0],[0,0],[0,0],[0,0],[0,0],[0,0],[0,0],[0,0],[0,0],[0,0],[0,0],[0,0],[0,0],[0,0],[0,0],[0,0],[0,0],[0,0],[0,0],[0,0],[0,0],[0,0],[0,0],[0,0],[0,0],[0,0],[0,0],[0,0],[0,0],[0,0],[0,0],[0,0],[0,0],[0,0],[0,0],[0,0],[0,0],[0,0],[0,0],[0,0],[0,0],[0,0],[0,0],[0,0],[0,0],[0,0],[0,0],[0,0],[0,0],[0,0],[0,0],[0,0],[0,0],[0,0],[0,0],[0,0],[0,0],[0,0],[0,0]],"o":[[0,0],[0,0],[0,0],[0,0],[0,0],[0,0],[0,0],[0,0],[0,0],[0,0],[0,0],[0,0],[0,0],[0,0],[0,0],[0,0],[0,0],[0,0],[0,0],[0,0],[0,0],[0,0],[0,0],[0,0],[0,0],[0,0],[0,0],[0,0],[0,0],[0,0],[0,0],[0,0],[0,0],[0,0],[0,0],[0,0],[0,0],[0,0],[0,0],[0,0],[0,0],[0,0],[0,0],[0,0],[0,0],[0,0],[0,0],[0,0],[0,0],[0,0],[0,0],[0,0],[0,0],[0,0],[0,0],[0,0],[0,0],[0,0],[0,0],[0,0],[0,0],[0,0],[0,0],[0,0],[0,0],[0,0],[0,0],[0,0],[0,0],[0,0],[0,0],[0,0],[0,0],[0,0],[0,0],[0,0],[0,0],[0,0],[0,0],[0,0],[0,0],[0,0],[0,0],[0,0],[0,0],[0,0],[0,0],[0,0],[0,0],[0,0],[0,0],[0,0],[0,0],[0,0],[0,0],[0,0],[0,0],[0,0],[0,0],[0,0],[0,0],[0,0],[0,0],[0,0],[0,0],[0,0],[0,0],[0,0],[0,0],[0,0],[0,0],[0,0],[0,0],[0,0],[0,0],[0,0],[0,0],[0,0],[0,0],[0,0],[0,0],[0,0],[0,0],[0,0],[0,0],[0,0],[0,0],[0,0],[0,0],[0,0],[0,0],[0,0],[0,0],[0,0],[0,0],[0,0],[0,0],[0,0],[0,0],[0,0],[0,0],[0,0],[0,0],[0,0],[0,0],[0,0],[0,0],[0,0],[0,0],[0,0],[0,0],[0,0],[0,0],[0,0],[0,0],[0,0],[0,0],[0,0],[0,0],[0,0],[0,0],[0,0],[0,0],[0,0],[0,0],[0,0],[0,0],[0,0],[0,0],[0,0],[0,0],[0,0],[0,0],[0,0],[0,0],[0,0],[0,0],[0,0],[0,0],[0,0],[0,0],[0,0],[0,0],[0,0],[0,0],[0,0],[0,0],[0,0],[0,0],[0,0],[0,0],[0,0],[0,0],[0,0],[0,0],[0,0],[0,0],[0,0],[0,0],[0,0],[0,0],[0,0],[0,0],[0,0],[0,0],[0,0],[0,0],[0,0],[0,0],[0,0],[0,0],[0,0],[0,0],[0,0],[0,0],[0,0],[0,0],[0,0],[0,0],[0,0],[0,0],[0,0],[0,0],[0,0],[0,0],[0,0],[0,0],[0,0],[0,0],[0,0],[0,0],[0,0],[0,0],[0,0],[0,0],[0,0],[0,0],[0,0],[0,0],[0,0],[0,0],[0,0],[0,0],[0,0],[0,0],[0,0],[0,0],[0,0],[0,0],[0,0],[0,0],[0,0],[0,0],[0,0],[0,0],[0,0],[0,0],[0,0],[0,0],[0,0],[0,0],[0,0],[0,0],[0,0],[0,0],[0,0],[0,0],[0,0],[0,0],[0,0],[0,0],[0,0],[0,0],[0,0],[0,0],[0,0],[0,0],[0,0],[0,0],[0,0],[0,0],[0,0],[0,0],[0,0],[0,0],[0,0],[0,0],[0,0],[0,0],[0,0],[0,0],[0,0],[0,0],[0,0],[0,0],[0,0],[0,0],[0,0],[0,0],[0,0],[0,0],[0,0],[0,0],[0,0],[0,0],[0,0],[0,0],[0,0],[0,0],[0,0],[0,0],[0,0],[0,0],[0,0],[0,0],[0,0],[0,0],[0,0],[0,0],[0,0],[0,0],[0,0],[0,0],[0,0],[0,0],[0,0],[0,0],[0,0]],"v":[[293.776,0.686],[294.078,0.716],[289.436,0.69],[281.557,0.64],[272.899,0.609],[264.536,0.632],[261.794,0.618],[260.234,0.756],[259.467,0.612],[259.15,1.868],[259.031,0.665],[257.691,0.626],[255.479,0.622],[253.93,0.698],[248.63,0.616],[241.913,0.735],[233.88,0.611],[229.65,0.628],[227.684,0.733],[224.426,0.758],[213.038,0.767],[209.957,0.612],[203.322,0.62],[194.574,0.66],[185.418,0.647],[179.954,0.763],[179.722,0.763],[179.597,0.746],[177.3,0.714],[174.218,1.079],[171.687,0.78],[167.264,1.148],[165.027,1.253],[160.322,1.173],[155.414,0.873],[153.561,-0.397],[152.597,0.132],[151.204,0.518],[149.532,0.016],[148.543,-0.157],[147.811,-0.242],[145.175,-0.038],[142.65,0.047],[140.771,0.533],[137.629,0.663],[132.635,0.479],[125.806,0.852],[123.151,0.715],[115.448,0.78],[112.575,0.848],[107.188,0.788],[104.411,0.558],[98.257,0.798],[93.665,0.783],[91.863,0.801],[89.441,0.698],[80.212,0.812],[76.667,0.601],[74.248,0.797],[71.387,1.866],[68.249,1.366],[66.055,1.383],[62.975,1.407],[59.273,0.929],[56.048,0.579],[51.572,0.87],[48.438,0.671],[47.359,0.63],[47.341,1.327],[45.496,1.519],[44.741,0.777],[40.9,1.082],[36.881,0.89],[32.53,0.697],[30.173,0.833],[24.089,0.839],[20.78,0.794],[18.718,0.531],[15.081,0.78],[11.68,0.614],[7.744,0.633],[2.388,0.728],[-0.36,0.618],[-4.111,0.713],[-6.075,0.713],[-16.683,0.641],[-21.191,0.775],[-27.924,0.717],[-30.613,0.632],[-32.831,0.681],[-36.497,0.635],[-37.94,0.73],[-43.138,0.677],[-46.993,0.695],[-50.593,0.717],[-58.318,0.666],[-61.273,0.768],[-66.261,0.812],[-69.797,0.762],[-73.928,0.742],[-77.081,0.82],[-77.562,0.552],[-83.177,0.625],[-94.132,0.723],[-91.444,0.692],[-93.843,0.798],[-96.229,0.77],[-97.326,0.644],[-98.736,0.764],[-100.946,0.625],[-102.641,0.68],[-108.986,0.659],[-119.997,0.859],[-117.792,0.593],[-124.97,0.708],[-130.61,0.708],[-132.733,0.757],[-136.125,0.738],[-138.108,0.761],[-140.246,0.666],[-141.982,0.779],[-147.359,0.693],[-151.648,0.769],[-164.212,0.698],[-172.24,0.688],[-172.94,0.664],[-174.678,0.712],[-175.884,1.361],[-177.39,0.746],[-180.149,0.26],[-185.142,0.746],[-189.356,0.76],[-192.512,0.669],[-194.303,0.691],[-199.496,0.725],[-202.431,0.686],[-203.462,0.66],[-205.471,1.292],[-206.142,0.704],[-206.657,0.709],[-207.638,0.679],[-208.69,0.693],[-209.358,0.675],[-210.209,0.706],[-210.214,0.693],[-211.869,0.734],[-214.983,0.779],[-217.539,0.608],[-222.21,0.676],[-238.006,0.68],[-246.892,0.772],[-254.134,0.678],[-255.12,0.687],[-256.071,0.706],[-257.194,0.759],[-257.462,0.726],[-257.909,0.694],[-258.968,0.707],[-266.896,0.713],[-295.017,0.7],[-296.058,0.677],[-266.846,0.708],[-258.745,0.699],[-257.832,0.675],[-257.695,0.694],[-257.427,0.734],[-256.828,0.69],[-256.549,0.707],[-255.583,0.699],[-250.298,0.65],[-241.951,0.646],[-236.421,0.632],[-232.422,0.715],[-228.295,0.731],[-226.241,0.221],[-225.14,0.559],[-224.521,0.638],[-223.627,0.691],[-223.228,0.638],[-222.335,0.38],[-221.591,0.016],[-221.021,0.668],[-221.79,0.704],[-218.666,0.717],[-206.677,0.71],[-190.919,0.655],[-187.699,0.677],[-182.41,0.616],[-181.112,0.641],[-180.698,0.717],[-179.471,0.695],[-177.41,0.61],[-169.424,0.746],[-166.207,0.765],[-167.2,0.626],[-157.408,0.643],[-150.525,0.645],[-145.883,0.63],[-143.906,0.677],[-143.299,0.73],[-141.53,0.549],[-139.613,0.858],[-137.869,0.641],[-136.217,0.718],[-133.526,0.707],[-132.553,0.675],[-130.703,0.639],[-121.979,0.731],[-111.55,0.632],[-105.513,0.656],[-104.936,0.756],[-102.523,0.591],[-99.533,0.758],[-96.21,0.704],[-95.358,0.777],[-80.981,0.743],[-81.515,0.679],[-79.1,0.64],[-71.959,0.648],[-70.643,0.618],[-68.967,0.641],[-66.587,0.7],[-64.173,0.725],[-62.129,0.743],[-59.666,0.654],[-56.906,0.684],[-55.01,0.732],[-45.392,0.637],[-42.842,0.733],[-39.674,0.629],[-35.465,0.639],[-29.689,0.759],[-25.666,0.716],[-21.746,0.754],[-20.078,0.691],[-11.325,0.723],[-4.658,0.746],[-0.657,0.748],[3.704,0.808],[7.885,0.666],[5.473,0.8],[7.721,1.036],[10.13,1.191],[14.128,1.116],[18.339,0.734],[22.146,0.665],[25.788,1.44],[29.286,1.173],[33.068,0.738],[36.114,0.692],[38.443,1.999],[41.513,0.546],[47.434,0.622],[53.03,0.825],[57.659,0.854],[58.296,0.698],[59.977,0.578],[62.683,0.563],[65.541,0.696],[71.528,0.735],[77.335,0.563],[82.091,0.75],[90.871,0.646],[92.493,0.27],[94.318,0.331],[97.406,0.739],[101.6,0.581],[105.613,0.772],[109.647,0.676],[112.795,0.67],[114.319,0.561],[115.927,-0.257],[117.602,0],[118.925,-0.02],[121.05,0.269],[128.866,0.586],[129.334,0.531],[128.846,0.804],[130.513,0.69],[134.357,0.522],[135.716,0.706],[138.616,0.736],[141.749,0.567],[145.741,0.695],[149.389,0.788],[152.078,0.537],[158.49,0.843],[163.94,0.804],[171.111,0.702],[175.035,0.407],[178.06,0.71],[180.694,0.611],[181.511,0.722],[183.103,0.695],[182.795,0.643],[184.06,0.756],[184.043,0.751],[185.53,0.65],[188.203,0.769],[192.597,0.655],[198.03,0.709],[205.439,0.643],[214.788,0.77],[216.66,0.74],[217.594,0.718],[218.37,0.684],[218.347,0.625],[218.535,0.698],[218.934,0.701],[220.466,0.625],[222.478,0.664],[224.566,0.75],[233.801,0.686],[246.127,0.711],[253.163,0.75],[256.109,0.692],[260.882,0.664],[261.988,0.817],[262.513,0.764],[262.827,0.711],[264.454,0.234],[265.157,0.72],[270.345,0.723],[278.308,0.659],[283.778,0.623],[290.842,0.702],[294.289,0.758],[294.809,0.65]]}]},{"t":28}]},{"ty":"fl","fillEnabled":true,"c":[{"i":{"x":[0.667],"y":[1]},"o":{"x":[0.333],"y":[0]},"n":"0p667_1_0p333_0","t":22,"s":[156,156,156,255],"e":[173,0,64,255]},{"i":{"x":[0.833],"y":[0.833]},"o":{"x":[0.167],"y":[0.167]},"n":"0p833_0p833_0p167_0p167","t":25,"s":[173,0,64,255],"e":[173,0,64,255]},{"t":28}],"o":100}],"rectData":{"l":0,"t":0,"b":0,"r":0,"w":0,"h":0},"layerName":"original","threeD":false,"an":{},"width":100,"height":100,"inPoint":-4,"outPoint":28,"startTime":-4,"ks":{"o":100,"r":0,"p":[50,50,0],"a":[0,0,0],"s":[14.4,14.4,100]}}],"totalFrames":15,"frameRate":25,"ff":0.88,"compWidth":100,"compHeight":100},"assets":[],"v":"2.0.6"}